{"learner":{"attributes":{"best_iteration":"99","best_ntree_limit":"100","scikit_learn":"{\"n_estimators\": 100, \"objective\": \"reg:squarederror\", \"max_depth\": null, \"learning_rate\": null, \"verbosity\": null, \"booster\": null, \"tree_method\": null, \"gamma\": null, \"min_child_weight\": null, \"max_delta_step\": null, \"subsample\": null, \"colsample_bytree\": null, \"colsample_bylevel\": null, \"colsample_bynode\": null, \"reg_alpha\": null, \"reg_lambda\": null, \"scale_pos_weight\": null, \"base_score\": null, \"missing\": NaN, \"num_parallel_tree\": null, \"random_state\": null, \"n_jobs\": null, \"monotone_constraints\": null, \"interaction_constraints\": null, \"importance_type\": null, \"gpu_id\": null, \"validate_parameters\": null, \"predictor\": null, \"enable_categorical\": false, \"_estimator_type\": \"regressor\"}"},"feature_names":["Lending interest rate (%)","Unemployment","GDP Growth"],"feature_types":["float","float","float"],"gradient_booster":{"model":{"gbtree_model_param":{"num_trees":"100","size_leaf_vector":"0"},"tree_info":[0,0,0,0,0,0,0,0,0,0,0,0,0,0,0,0,0,0,0,0,0,0,0,0,0,0,0,0,0,0,0,0,0,0,0,0,0,0,0,0,0,0,0,0,0,0,0,0,0,0,0,0,0,0,0,0,0,0,0,0,0,0,0,0,0,0,0,0,0,0,0,0,0,0,0,0,0,0,0,0,0,0,0,0,0,0,0,0,0,0,0,0,0,0,0,0,0,0,0,0],"trees":[{"base_weights":[2.8892617E0,1.4150856E0,5.857311E0,1.7413864E0,2.9078856E-1],"categories":[],"categories_nodes":[],"categories_segments":[],"categories_sizes":[],"default_left":[true,true,false,false,false],"id":0,"left_children":[1,3,-1,-1,-1],"loss_changes":[3.5465675E1,2.4284973E0,0E0,0E0,0E0],"parents":[2147483647,0,0,1,1],"right_children":[2,4,-1,-1,-1],"split_conditions":[1.15E1,6.805E0,1.7571933E0,5.2241594E-1,8.723657E-2],"split_indices":[0,1,0,0,0],"split_type":[0,0,0,0,0],"sum_hessian":[9E0,7E0,2E0,5E0,2E0],"tree_param":{"num_deleted":"0","num_feature":"3","num_nodes":"5","size_leaf_vector":"0"}},{"base_weights":[2.2591677E0,1.0667665E0,4.6858487E0,1.3060398E0,2.3263085E-1,4.9244568E-1,1.5897255E0],"categories":[],"categories_nodes":[],"categories_segments":[],"categories_sizes":[],"default_left":[true,true,false,true,false,false,false],"id":1,"left_children":[1,3,-1,5,-1,-1,-1],"loss_changes":[2.3937069E1,1.2928667E0,0E0,6.0197735E-1,0E0,0E0,0E0],"parents":[2147483647,0,0,1,1,3,3],"right_children":[2,4,-1,6,-1,-1,-1],"split_conditions":[1.15E1,6.805E0,1.4057547E0,5.9366665E0,6.978926E-2,1.477337E-1,4.7691765E-1],"split_indices":[0,1,0,0,0,0,0],"split_type":[0,0,0,0,0,0,0],"sum_hessian":[9E0,7E0,2E0,5E0,2E0,2E0,3E0],"tree_param":{"num_deleted":"0","num_feature":"3","num_nodes":"7","size_leaf_vector":"0"}},{"base_weights":[1.7914369E0,8.3354163E-1,3.748679E0,1.0183365E0,1.861047E-1,3.9395654E-1,1.2320373E0],"categories":[],"categories_nodes":[],"categories_segments":[],"categories_sizes":[],"default_left":[true,true,false,true,false,false,false],"id":2,"left_children":[1,3,-1,5,-1,-1,-1],"loss_changes":[1.562365E1,7.6762676E-1,0E0,3.1521416E-1,0E0,0E0,0E0],"parents":[2147483647,0,0,1,1,3,3],"right_children":[2,4,-1,6,-1,-1,-1],"split_conditions":[1.15E1,6.805E0,1.1246037E0,5.9366665E0,5.5831414E-2,1.18186966E-1,3.696112E-1],"split_indices":[0,1,0,0,0,0,0],"split_type":[0,0,0,0,0,0,0],"sum_hessian":[9E0,7E0,2E0,5E0,2E0,2E0,3E0],"tree_param":{"num_deleted":"0","num_feature":"3","num_nodes":"7","size_leaf_vector":"0"}},{"base_weights":[1.4208292E0,6.514328E-1,2.998943E0,1.2406769E0,3.9001554E-1,4.3047193E-1,7.363868E-2],"categories":[],"categories_nodes":[],"categories_segments":[],"categories_sizes":[],"default_left":[true,true,false,false,true,false,false],"id":3,"left_children":[1,3,-1,-1,5,-1,-1],"loss_changes":[1.0188341E1,7.4842525E-1,0E0,0E0,5.7896852E-2,0E0,0E0],"parents":[2147483647,0,0,1,1,4,4],"right_children":[2,4,-1,-1,6,-1,-1],"split_conditions":[1.15E1,4.6949997E0,8.9968294E-1,3.7220308E-1,4.409729E0,1.2914158E-1,2.2091605E-2],"split_indices":[0,1,0,0,2,0,0],"split_type":[0,0,0,0,0,0,0],"sum_hessian":[9E0,7E0,2E0,1E0,6E0,5E0,1E0],"tree_param":{"num_deleted":"0","num_feature":"3","num_nodes":"7","size_leaf_vector":"0"}},{"base_weights":[1.1368923E0,5.214325E-1,2.3991544E0,1.0545753E0,2.9461563E-1,3.5337827E-1,9.847268E-2,9.664488E-2,3.934004E-1],"categories":[],"categories_nodes":[],"categories_segments":[],"categories_sizes":[],"default_left":[true,true,false,false,true,true,false,false,false],"id":4,"left_children":[1,3,-1,-1,5,7,-1,-1,-1],"loss_changes":[6.5177174E0,6.567118E-1,0E0,0E0,4.5883E-2,1.3354957E-2,0E0,0E0,0E0],"parents":[2147483647,0,0,1,1,4,4,5,5],"right_children":[2,4,-1,-1,6,8,-1,-1,-1],"split_conditions":[1.15E1,4.6949997E0,7.1974635E-1,3.163726E-1,6.805E0,5.180917E0,2.9541804E-2,2.8993465E-2,1.18020125E-1],"split_indices":[0,1,0,0,1,0,0,0,0],"split_type":[0,0,0,0,0,0,0,0,0],"sum_hessian":[9E0,7E0,2E0,1E0,6E0,4E0,2E0,1E0,3E0],"tree_param":{"num_deleted":"0","num_feature":"3","num_nodes":"9","size_leaf_vector":"0"}},{"base_weights":[9.1709197E-1,4.2661875E-1,1.9193233E0,8.96389E-1,2.3145315E-1,2.7676752E-1,7.877815E-2,8.2148135E-2,3.0488533E-1],"categories":[],"categories_nodes":[],"categories_segments":[],"categories_sizes":[],"default_left":[true,true,false,false,true,true,false,false,false],"id":5,"left_children":[1,3,-1,-1,5,7,-1,-1,-1],"loss_changes":[4.096858E0,5.259919E-1,0E0,0E0,2.6625365E-2,2.3155808E-3,0E0,0E0,0E0],"parents":[2147483647,0,0,1,1,4,4,5,5],"right_children":[2,4,-1,-1,6,8,-1,-1,-1],"split_conditions":[1.15E1,4.6949997E0,5.75797E-1,2.6891673E-1,6.805E0,5.180917E0,2.3633445E-2,2.4644442E-2,9.14656E-2],"split_indices":[0,1,0,0,1,0,0,0,0],"split_type":[0,0,0,0,0,0,0,0,0],"sum_hessian":[9E0,7E0,2E0,1E0,6E0,4E0,2E0,1E0,3E0],"tree_param":{"num_deleted":"0","num_feature":"3","num_nodes":"9","size_leaf_vector":"0"}},{"base_weights":[7.404101E-1,3.4971565E-1,1.5354586E0,7.619307E-1,1.8198052E-1,2.372782E-1,8.1187725E-2,6.982589E-2,2.6982033E-1],"categories":[],"categories_nodes":[],"categories_segments":[],"categories_sizes":[],"default_left":[true,true,false,false,true,true,false,false,false],"id":6,"left_children":[1,3,-1,-1,5,7,-1,-1,-1],"loss_changes":[2.5692358E0,4.14487E-1,0E0,0E0,1.9751191E-2,2.9565692E-3,0E0,0E0,0E0],"parents":[2147483647,0,0,1,1,4,4,5,5],"right_children":[2,4,-1,-1,6,8,-1,-1,-1],"split_conditions":[1.15E1,4.6949997E0,4.606376E-1,2.2857922E-1,6.647917E0,5.180917E0,2.4356319E-2,2.0947767E-2,8.09461E-2],"split_indices":[0,1,0,0,0,0,0,0,0],"split_type":[0,0,0,0,0,0,0,0,0],"sum_hessian":[9E0,7E0,2E0,1E0,6E0,3E0,3E0,1E0,2E0],"tree_param":{"num_deleted":"0","num_feature":"3","num_nodes":"9","size_leaf_vector":"0"}},{"base_weights":[5.998337E-1,1.5420897E-1,1.0146167E0,1.9156817E-1,5.2993715E-2,1.2450957E0,4.635039E-2,5.935198E-2,2.1585624E-1],"categories":[],"categories_nodes":[],"categories_segments":[],"categories_sizes":[],"default_left":[true,true,true,true,false,false,false,false,false],"id":7,"left_children":[1,3,5,7,-1,-1,-1,-1,-1],"loss_changes":[1.6919129E0,1.2536019E-2,1.0581145E0,3.360212E-5,0E0,0E0,0E0,0E0,0E0],"parents":[2147483647,0,0,1,1,2,2,3,3],"right_children":[2,4,6,8,-1,-1,-1,-1,-1],"split_conditions":[7.979167E0,6.647917E0,1.0344999E1,5.180917E0,1.5898116E-2,3.7352872E-1,1.3905117E-2,1.7805595E-2,6.475688E-2],"split_indices":[0,0,1,0,0,0,0,0,0],"split_type":[0,0,0,0,0,0,0,0,0],"sum_hessian":[9E0,5E0,4E0,3E0,2E0,3E0,1E0,1E0,2E0],"tree_param":{"num_deleted":"0","num_feature":"3","num_nodes":"9","size_leaf_vector":"0"}},{"base_weights":[4.68473E-1,2.183359E-1,9.793475E-1,4.608767E-1,1.1784769E-1,1.5473834E-1,5.149512E-2,1.5878052E-2,5.807479E-2],"categories":[],"categories_nodes":[],"categories_segments":[],"categories_sizes":[],"default_left":[true,true,false,false,true,false,true,false,false],"id":8,"left_children":[1,3,-1,-1,5,-1,7,-1,-1],"loss_changes":[1.06406E0,1.4066666E-1,0E0,0E0,9.166256E-3,0E0,1.528114E-5,0E0,0E0],"parents":[2147483647,0,0,1,1,4,4,6,6],"right_children":[2,4,-1,-1,6,-1,8,-1,-1],"split_conditions":[1.15E1,4.6949997E0,2.9380426E-1,1.3826302E-1,6.647917E0,4.64215E-2,6.866667E0,4.7634155E-3,1.7422438E-2],"split_indices":[0,1,0,0,0,0,0,0,0],"split_type":[0,0,0,0,0,0,0,0,0],"sum_hessian":[9E0,7E0,2E0,1E0,6E0,3E0,3E0,1E0,2E0],"tree_param":{"num_deleted":"0","num_feature":"3","num_nodes":"9","size_leaf_vector":"0"}},{"base_weights":[3.7799856E-1,9.640808E-1,2.0575823E-1,9.7447954E-2,3.1678408E-1,1.11539006E-1,1.3496339E-2,4.0192103E-1,3.0686617E-2,5.6198925E-2,1.6644967E-1],"categories":[],"categories_nodes":[],"categories_segments":[],"categories_sizes":[],"default_left":[true,false,true,true,true,true,false,false,false,false,false],"id":9,"left_children":[1,-1,3,5,7,9,-1,-1,-1,-1,-1],"loss_changes":[8.111024E-1,0E0,7.73572E-2,5.592432E-3,8.509627E-2,5.8395118E-3,0E0,0E0,0E0,0E0,0E0],"parents":[2147483647,0,0,2,2,3,3,4,4,5,5],"right_children":[2,-1,4,6,8,10,-1,-1,-1,-1,-1],"split_conditions":[-9.0409446E-1,2.8922427E-1,7.979167E0,6.805E0,9.42E0,5.66E0,4.048902E-3,1.20576315E-1,9.205986E-3,1.6859679E-2,4.99349E-2],"split_indices":[2,0,0,1,1,1,0,0,0,0,0],"split_type":[0,0,0,0,0,0,0,0,0,0,0],"sum_hessian":[9E0,1E0,8E0,5E0,3E0,4E0,1E0,2E0,1E0,3E0,1E0],"tree_param":{"num_deleted":"0","num_feature":"3","num_nodes":"11","size_leaf_vector":"0"}},{"base_weights":[3.13584E-1,8.194685E-1,1.6632254E-1,3.3145702E-1,1.0424861E-1,1.249831E-1,2.8030097E-2,2.9928148E-2,1.6502854E-1,3.7726462E-2,1.9488709E-1],"categories":[],"categories_nodes":[],"categories_segments":[],"categories_sizes":[],"default_left":[true,false,true,false,true,true,false,false,true,false,false],"id":10,"left_children":[1,-1,3,-1,5,7,-1,-1,9,-1,-1],"loss_changes":[6.086768E-1,0E0,5.770099E-2,0E0,9.139523E-3,1.790011E-2,0E0,0E0,7.851809E-3,0E0,0E0],"parents":[2147483647,0,0,2,2,4,4,5,5,8,8],"right_children":[2,-1,4,-1,6,8,-1,-1,10,-1,-1],"split_conditions":[-9.0409446E-1,2.4584056E-1,4.6949997E0,9.943711E-2,3.657886E0,2.3305407E0,8.40903E-3,8.978445E-3,5.9366665E0,1.1317939E-2,5.846613E-2],"split_indices":[2,0,1,0,2,2,0,0,0,0,0],"split_type":[0,0,0,0,0,0,0,0,0,0,0],"sum_hessian":[9E0,1E0,8E0,1E0,7E0,5E0,2E0,2E0,3E0,1E0,2E0],"tree_param":{"num_deleted":"0","num_feature":"3","num_nodes":"11","size_leaf_vector":"0"}},{"base_weights":[2.627537E-1,6.96548E-1,1.371601E-1,2.8173852E-1,8.387048E-2,1.0061526E-1,2.2424081E-2,2.394251E-2,1.3296601E-1,3.2067478E-2,1.559097E-1],"categories":[],"categories_nodes":[],"categories_segments":[],"categories_sizes":[],"default_left":[true,false,true,false,true,true,false,false,true,false,false],"id":11,"left_children":[1,-1,3,-1,5,7,-1,-1,9,-1,-1],"loss_changes":[4.492792E-1,0E0,4.571122E-2,0E0,5.975049E-3,1.169898E-2,0E0,0E0,4.260309E-3,0E0,0E0],"parents":[2147483647,0,0,2,2,4,4,5,5,8,8],"right_children":[2,-1,4,-1,6,8,-1,-1,10,-1,-1],"split_conditions":[-9.0409446E-1,2.089644E-1,4.6949997E0,8.452156E-2,3.657886E0,2.3305407E0,6.7272247E-3,7.182753E-3,5.9366665E0,9.620244E-3,4.6772912E-2],"split_indices":[2,0,1,0,2,2,0,0,0,0,0],"split_type":[0,0,0,0,0,0,0,0,0,0,0],"sum_hessian":[9E0,1E0,8E0,1E0,7E0,5E0,2E0,2E0,3E0,1E0,2E0],"tree_param":{"num_deleted":"0","num_feature":"3","num_nodes":"11","size_leaf_vector":"0"}},{"base_weights":[2.2030649E-1,5.920658E-1,1.1321481E-1,2.3947775E-1,6.749722E-2,7.6024316E-2,3.9037764E-3,1.9154012E-2,9.494164E-2,3.350834E-2,1.24727726E-1],"categories":[],"categories_nodes":[],"categories_segments":[],"categories_sizes":[],"default_left":[true,false,true,false,true,true,false,false,true,false,false],"id":12,"left_children":[1,-1,3,-1,5,7,-1,-1,9,-1,-1],"loss_changes":[3.310927E-1,0E0,3.578785E-2,0E0,4.041359E-3,5.7123266E-3,0E0,0E0,4.969869E-3,0E0,0E0],"parents":[2147483647,0,0,2,2,4,4,5,5,8,8],"right_children":[2,-1,4,-1,6,8,-1,-1,10,-1,-1],"split_conditions":[-9.0409446E-1,1.7761976E-1,4.6949997E0,7.1843326E-2,4.409729E0,2.3305407E0,1.171133E-3,5.746204E-3,5.66E0,1.0052503E-2,3.741832E-2],"split_indices":[2,0,1,0,2,2,0,0,1,0,0],"split_type":[0,0,0,0,0,0,0,0,0,0,0],"sum_hessian":[9E0,1E0,8E0,1E0,7E0,6E0,1E0,2E0,4E0,2E0,2E0],"tree_param":{"num_deleted":"0","num_feature":"3","num_nodes":"11","size_leaf_vector":"0"}},{"base_weights":[1.8459964E-1,5.0325584E-1,9.327607E-2,2.0355606E-1,5.4046564E-2,6.496304E-2,1.4198084E-2,1.5323202E-2,8.595216E-2,3.3182204E-3,1.7978907E-2,2.2231102E-2,9.978215E-2],"categories":[],"categories_nodes":[],"categories_segments":[],"categories_sizes":[],"default_left":[true,false,true,false,true,true,true,false,true,false,false,false,false],"id":13,"left_children":[1,-1,3,-1,5,7,9,-1,11,-1,-1,-1,-1],"loss_changes":[2.4406648E-1,0E0,2.7934559E-2,0E0,2.5576893E-3,4.9343165E-3,6.374653E-5,0E0,1.3067797E-3,0E0,0E0,0E0,0E0],"parents":[2147483647,0,0,2,2,4,4,5,5,6,6,8,8],"right_children":[2,-1,4,-1,6,8,10,-1,12,-1,-1,-1,-1],"split_conditions":[-9.0409446E-1,1.5097676E-1,4.6949997E0,6.106682E-2,3.657886E0,2.3305407E0,6.866667E0,4.5969607E-3,5.9366665E0,9.954661E-4,5.3936723E-3,6.669331E-3,2.9934645E-2],"split_indices":[2,0,1,0,2,2,0,0,0,0,0,0,0],"split_type":[0,0,0,0,0,0,0,0,0,0,0,0,0],"sum_hessian":[9E0,1E0,8E0,1E0,7E0,5E0,2E0,2E0,3E0,1E0,1E0,1E0,2E0],"tree_param":{"num_deleted":"0","num_feature":"3","num_nodes":"13","size_leaf_vector":"0"}},{"base_weights":[1.5518306E-1,4.2776728E-1,7.736623E-2,1.7302275E-1,4.3781325E-2,4.9229946E-2,2.8204918E-3,1.225857E-2,6.156678E-2,2.2785664E-2,7.982564E-2],"categories":[],"categories_nodes":[],"categories_segments":[],"categories_sizes":[],"default_left":[true,false,true,false,true,true,false,false,true,false,false],"id":14,"left_children":[1,-1,3,-1,5,7,-1,-1,9,-1,-1],"loss_changes":[1.7902167E-1,0E0,2.1338373E-2,0E0,1.6465886E-3,2.438048E-3,0E0,0E0,1.7216131E-3,0E0,0E0],"parents":[2147483647,0,0,2,2,4,4,5,5,8,8],"right_children":[2,-1,4,-1,6,8,-1,-1,10,-1,-1],"split_conditions":[-9.0409446E-1,1.2833019E-1,4.6949997E0,5.1906828E-2,4.409729E0,2.3305407E0,8.461476E-4,3.677571E-3,5.66E0,6.8356995E-3,2.3947693E-2],"split_indices":[2,0,1,0,2,2,0,0,1,0,0],"split_type":[0,0,0,0,0,0,0,0,0,0,0],"sum_hessian":[9E0,1E0,8E0,1E0,7E0,6E0,1E0,2E0,4E0,2E0,2E0],"tree_param":{"num_deleted":"0","num_feature":"3","num_nodes":"11","size_leaf_vector":"0"}},{"base_weights":[1.3018252E-1,3.6360216E-1,6.384677E-2,1.4706922E-1,3.506031E-2,3.9383948E-2,2.397418E-3,9.806852E-3,4.9253415E-2,1.822853E-2,6.38605E-2],"categories":[],"categories_nodes":[],"categories_segments":[],"categories_sizes":[],"default_left":[true,false,true,false,true,true,false,false,true,false,false],"id":15,"left_children":[1,-1,3,-1,5,7,-1,-1,9,-1,-1],"loss_changes":[1.3162585E-1,0E0,1.6404822E-2,0E0,1.0353606E-3,1.56035E-3,0E0,0E0,1.1018319E-3,0E0,0E0],"parents":[2147483647,0,0,2,2,4,4,5,5,8,8],"right_children":[2,-1,4,-1,6,8,-1,-1,10,-1,-1],"split_conditions":[-9.0409446E-1,1.0908065E-1,4.6949997E0,4.4120766E-2,4.409729E0,2.3305407E0,7.1922544E-4,2.9420557E-3,5.66E0,5.4685595E-3,1.9158151E-2],"split_indices":[2,0,1,0,2,2,0,0,1,0,0],"split_type":[0,0,0,0,0,0,0,0,0,0,0],"sum_hessian":[9E0,1E0,8E0,1E0,7E0,6E0,1E0,2E0,4E0,2E0,2E0],"tree_param":{"num_deleted":"0","num_feature":"3","num_nodes":"11","size_leaf_vector":"0"}},{"base_weights":[1.092767E-1,3.09062E-1,5.273811E-2,1.2500882E-1,2.8078169E-2,3.3715E-2,7.445117E-3,7.845461E-3,4.4688404E-2,2.0377934E-3,9.129882E-3,2.2465587E-3,9.521633E-3,1.27443075E-2,5.1088333E-2],"categories":[],"categories_nodes":[],"categories_segments":[],"categories_sizes":[],"default_left":[true,false,true,false,true,true,true,true,true,false,false,false,false,false,false],"id":16,"left_children":[1,-1,3,-1,5,7,9,11,13,-1,-1,-1,-1,-1,-1],"loss_changes":[9.665644E-2,0E0,1.2529705E-2,0E0,6.794287E-4,1.3526604E-3,8.725401E-6,6.7632645E-6,1.6667508E-4,0E0,0E0,0E0,0E0,0E0,0E0],"parents":[2147483647,0,0,2,2,4,4,5,5,6,6,7,7,8,8],"right_children":[2,-1,4,-1,6,8,10,12,14,-1,-1,-1,-1,-1,-1],"split_conditions":[-9.0409446E-1,9.27186E-2,4.6949997E0,3.7502646E-2,3.657886E0,2.3305407E0,6.866667E0,7.8421664E0,5.9366665E0,6.1133807E-4,2.7389647E-3,6.7396765E-4,2.8564902E-3,3.8232924E-3,1.5326501E-2],"split_indices":[2,0,1,0,2,2,0,0,0,0,0,0,0,0,0],"split_type":[0,0,0,0,0,0,0,0,0,0,0,0,0,0,0],"sum_hessian":[9E0,1E0,8E0,1E0,7E0,5E0,2E0,2E0,3E0,1E0,1E0,1E0,1E0,1E0,2E0],"tree_param":{"num_deleted":"0","num_feature":"3","num_nodes":"15","size_leaf_vector":"0"}},{"base_weights":[9.211881E-2,2.6270247E-1,4.3975905E-2,1.0625744E-1,2.2908531E-2,2.568629E-2,1.732111E-3,6.6686273E-3,3.195963E-2,1.909554E-3,8.093387E-3,1.2395382E-2,4.0870667E-2],"categories":[],"categories_nodes":[],"categories_segments":[],"categories_sizes":[],"default_left":[true,false,true,false,true,true,false,true,true,false,false,false,false],"id":17,"left_children":[1,-1,3,-1,5,7,-1,9,11,-1,-1,-1,-1],"loss_changes":[7.057133E-2,0E0,9.374773E-3,0E0,4.2609265E-4,6.220029E-4,0E0,4.8868533E-6,3.6508124E-4,0E0,0E0,0E0,0E0],"parents":[2147483647,0,0,2,2,4,4,5,5,7,7,8,8],"right_children":[2,-1,4,-1,6,8,-1,10,12,-1,-1,-1,-1],"split_conditions":[-9.0409446E-1,7.8810744E-2,4.6949997E0,3.1877235E-2,4.409729E0,2.3305407E0,5.196333E-4,7.8421664E0,5.66E0,5.7286624E-4,2.4280162E-3,3.7186148E-3,1.2261201E-2],"split_indices":[2,0,1,0,2,2,0,0,1,0,0,0,0],"split_type":[0,0,0,0,0,0,0,0,0,0,0,0,0],"sum_hessian":[9E0,1E0,8E0,1E0,7E0,6E0,1E0,2E0,4E0,1E0,1E0,2E0,2E0],"tree_param":{"num_deleted":"0","num_feature":"3","num_nodes":"13","size_leaf_vector":"0"}},{"base_weights":[7.7502E-2,2.2329712E-1,3.649175E-2,9.031892E-2,1.8473491E-2,2.2173524E-2,4.915595E-3,5.668322E-3,2.9009044E-2,1.4722943E-3,5.9010983E-3,1.6230941E-3,6.8793893E-3,8.97336E-3,3.2696486E-2],"categories":[],"categories_nodes":[],"categories_segments":[],"categories_sizes":[],"default_left":[true,false,true,false,true,true,true,true,true,false,false,false,false,false,false],"id":18,"left_children":[1,-1,3,-1,5,7,9,11,13,-1,-1,-1,-1,-1,-1],"loss_changes":[5.1642437E-2,0E0,7.0603406E-3,0E0,2.923212E-4,5.1249703E-4,1.4920006E-6,3.5312332E-6,2.1243468E-6,0E0,0E0,0E0,0E0,0E0,0E0],"parents":[2147483647,0,0,2,2,4,4,5,5,6,6,7,7,8,8],"right_children":[2,-1,4,-1,6,8,10,12,14,-1,-1,-1,-1,-1,-1],"split_conditions":[-9.0409446E-1,6.698914E-2,4.6949997E0,2.7095677E-2,3.657886E0,2.3305407E0,6.866667E0,7.8421664E0,5.9366665E0,4.4168832E-4,1.7703295E-3,4.8692824E-4,2.0638169E-3,2.6920082E-3,9.808946E-3],"split_indices":[2,0,1,0,2,2,0,0,0,0,0,0,0,0,0],"split_type":[0,0,0,0,0,0,0,0,0,0,0,0,0,0,0],"sum_hessian":[9E0,1E0,8E0,1E0,7E0,5E0,2E0,2E0,3E0,1E0,1E0,1E0,1E0,1E0,2E0],"tree_param":{"num_deleted":"0","num_feature":"3","num_nodes":"15","size_leaf_vector":"0"}},{"base_weights":[6.5386295E-2,1.8980265E-1,3.0473074E-2,7.677102E-2,1.5089452E-2,1.8030128E-2,4.1782856E-3,4.8180423E-3,2.3431659E-2,1.2514591E-3,5.0159693E-3,1.3796091E-3,5.847454E-3],"categories":[],"categories_nodes":[],"categories_segments":[],"categories_sizes":[],"default_left":[true,false,true,false,true,true,true,true,false,false,false,false,false],"id":19,"left_children":[1,-1,3,-1,5,7,9,11,-1,-1,-1,-1,-1],"loss_changes":[3.7653882E-2,0E0,5.2516386E-3,0E0,1.8135458E-4,3.1529833E-4,1.077984E-6,2.5514892E-6,0E0,0E0,0E0,0E0,0E0],"parents":[2147483647,0,0,2,2,4,4,5,5,6,6,7,7],"right_children":[2,-1,4,-1,6,8,10,12,-1,-1,-1,-1,-1],"split_conditions":[-9.0409446E-1,5.6940798E-2,4.6949997E0,2.3031307E-2,3.657886E0,2.3305407E0,6.866667E0,7.8421664E0,7.029498E-3,3.7543775E-4,1.5047909E-3,4.1388275E-4,1.7542363E-3],"split_indices":[2,0,1,0,2,2,0,0,0,0,0,0,0],"split_type":[0,0,0,0,0,0,0,0,0,0,0,0,0],"sum_hessian":[9E0,1E0,8E0,1E0,7E0,5E0,2E0,2E0,3E0,1E0,1E0,1E0,1E0],"tree_param":{"num_deleted":"0","num_feature":"3","num_nodes":"13","size_leaf_vector":"0"}},{"base_weights":[5.4875355E-2,1.6133213E-1,2.5121033E-2,6.52554E-2,1.1947311E-2,7.7151316E-3,2.0786285E-2,8.646409E-3,1.0637343E-3,1.1726618E-3,9.906625E-3],"categories":[],"categories_nodes":[],"categories_segments":[],"categories_sizes":[],"default_left":[true,false,true,false,true,true,false,true,false,false,false],"id":20,"left_children":[1,-1,3,-1,5,7,-1,9,-1,-1,-1],"loss_changes":[2.762266E-2,0E0,3.9788443E-3,0E0,1.3889605E-4,3.416257E-5,0E0,4.4894143E-5,0E0,0E0,0E0],"parents":[2147483647,0,0,2,2,4,4,5,5,7,7],"right_children":[2,-1,4,-1,6,8,-1,10,-1,-1,-1],"split_conditions":[-9.0409446E-1,4.8399642E-2,4.6949997E0,1.9576622E-2,1.2833333E1,4.409729E0,6.235886E-3,5.180917E0,3.191203E-4,3.5179855E-4,2.9719877E-3],"split_indices":[2,0,1,0,0,2,0,0,0,0,0],"split_type":[0,0,0,0,0,0,0,0,0,0,0],"sum_hessian":[9E0,1E0,8E0,1E0,7E0,6E0,1E0,5E0,1E0,1E0,4E0],"tree_param":{"num_deleted":"0","num_feature":"3","num_nodes":"11","size_leaf_vector":"0"}},{"base_weights":[4.619823E-2,1.3713217E-1,2.0857552E-2,5.546713E-2,9.597965E-3,5.921032E-3,1.7668247E-2,6.6064796E-3,9.0417266E-4,9.967685E-4,7.529068E-3],"categories":[],"categories_nodes":[],"categories_segments":[],"categories_sizes":[],"default_left":[true,false,true,false,true,true,false,true,false,false,false],"id":21,"left_children":[1,-1,3,-1,5,7,-1,9,-1,-1,-1],"loss_changes":[2.0183034E-2,0E0,2.9748348E-3,0E0,1.3277686E-4,1.8098159E-5,0E0,2.3547997E-5,0E0,0E0,0E0],"parents":[2147483647,0,0,2,2,4,4,5,5,7,7],"right_children":[2,-1,4,-1,6,8,-1,10,-1,-1,-1],"split_conditions":[-9.0409446E-1,4.113965E-2,4.6949997E0,1.664014E-2,1.2833333E1,4.409729E0,5.3004744E-3,5.180917E0,2.712518E-4,2.9903057E-4,2.2587203E-3],"split_indices":[2,0,1,0,0,2,0,0,0,0,0],"split_type":[0,0,0,0,0,0,0,0,0,0,0],"sum_hessian":[9E0,1E0,8E0,1E0,7E0,6E0,1E0,5E0,1E0,1E0,4E0],"tree_param":{"num_deleted":"0","num_feature":"3","num_nodes":"11","size_leaf_vector":"0"}},{"base_weights":[3.8929664E-2,1.1656237E-1,1.7352436E-2,4.7147036E-2,7.734731E-3,1.9963384E-3,1.0778499E-2,1.3088852E-2,7.685423E-4,1.5881857E-2,2.35492E-3],"categories":[],"categories_nodes":[],"categories_segments":[],"categories_sizes":[],"default_left":[true,false,true,false,true,false,true,true,false,false,false],"id":22,"left_children":[1,-1,3,-1,5,-1,7,9,-1,-1,-1],"loss_changes":[1.4728346E-2,0E0,2.2143314E-3,0E0,1.18213124E-4,0E0,1.0557339E-4,8.251914E-5,0E0,0E0,0E0],"parents":[2147483647,0,0,2,2,4,4,6,6,7,7],"right_children":[2,-1,4,-1,6,-1,8,10,-1,-1,-1],"split_conditions":[-9.0409446E-1,3.496871E-2,4.6949997E0,1.4144111E-2,5.66E0,5.9890153E-4,3.8621683E0,9.42E0,2.305627E-4,4.7645574E-3,7.06476E-4],"split_indices":[2,0,1,0,1,0,2,1,0,0,0],"split_type":[0,0,0,0,0,0,0,0,0,0,0],"sum_hessian":[9E0,1E0,8E0,1E0,7E0,3E0,4E0,3E0,1E0,2E0,1E0],"tree_param":{"num_deleted":"0","num_feature":"3","num_nodes":"11","size_leaf_vector":"0"}},{"base_weights":[3.279215E-2,9.907818E-2,1.44183505E-2,4.0075064E-2,6.201878E-3,3.4776586E-3,1.2635708E-2,1.5471578E-3,4.5387447E-3,5.6161485E-3,6.532669E-4],"categories":[],"categories_nodes":[],"categories_segments":[],"categories_sizes":[],"default_left":[true,false,true,false,true,true,false,false,true,false,false],"id":23,"left_children":[1,-1,3,-1,5,7,-1,-1,9,-1,-1],"loss_changes":[1.0750718E-2,0E0,1.6487284E-3,0E0,9.6274656E-5,7.316841E-6,0E0,0E0,1.307606E-5,0E0,0E0],"parents":[2147483647,0,0,2,2,4,4,5,5,8,8],"right_children":[2,-1,4,-1,6,8,-1,-1,10,-1,-1],"split_conditions":[-9.0409446E-1,2.9723454E-2,4.6949997E0,1.20225195E-2,1.2833333E1,5.66E0,3.7907124E-3,4.6414734E-4,3.8621683E0,1.6848446E-3,1.9598009E-4],"split_indices":[2,0,1,0,0,1,0,0,2,0,0],"split_type":[0,0,0,0,0,0,0,0,0,0,0],"sum_hessian":[9E0,1E0,8E0,1E0,7E0,6E0,1E0,3E0,3E0,2E0,1E0],"tree_param":{"num_deleted":"0","num_feature":"3","num_nodes":"11","size_leaf_vector":"0"}},{"base_weights":[2.774266E-2,8.4216595E-2,1.2110379E-2,3.4063816E-2,5.1082224E-3,2.769317E-3,1.074028E-2,1.199007E-3,3.6472976E-3,5.5800676E-3,1.1430184E-3],"categories":[],"categories_nodes":[],"categories_segments":[],"categories_sizes":[],"default_left":[true,false,true,false,true,true,false,false,true,false,false],"id":24,"left_children":[1,-1,3,-1,5,7,-1,-1,9,-1,-1],"loss_changes":[7.8082695E-3,0E0,1.2094871E-3,0E0,7.563956E-5,5.2777723E-6,0E0,2.3012672E-7,1.2982662E-5,0E0,0E0],"parents":[2147483647,0,0,2,2,4,4,5,5,8,8],"right_children":[2,-1,4,-1,6,8,-1,-1,10,-1,-1],"split_conditions":[-9.0409446E-1,2.526498E-2,4.6949997E0,1.0219146E-2,1.2833333E1,5.66E0,3.2220841E-3,3.5970213E-4,6.647917E0,1.6740203E-3,3.4290552E-4],"split_indices":[2,0,1,0,0,1,0,0,0,0,0],"split_type":[0,0,0,0,0,0,0,0,0,0,0],"sum_hessian":[9E0,1E0,8E0,1E0,7E0,6E0,1E0,3E0,3E0,1E0,2E0],"tree_param":{"num_deleted":"0","num_feature":"3","num_nodes":"11","size_leaf_vector":"0"}},{"base_weights":[2.352814E-2,7.1584225E-2,1.0234773E-2,2.8954268E-2,4.275553E-3,2.278047E-3,9.129047E-3,1.3589859E-4,2.612422E-3,3.6859512E-3,1.1541694E-3,7.8582764E-4,4.743099E-3],"categories":[],"categories_nodes":[],"categories_segments":[],"categories_sizes":[],"default_left":[true,false,true,false,true,true,false,false,true,true,false,false,false],"id":25,"left_children":[1,-1,3,-1,5,7,-1,-1,9,11,-1,-1,-1],"loss_changes":[5.655624E-3,0E0,8.801868E-4,0E0,5.6762685E-5,4.658941E-6,0E0,0E0,5.1386487E-6,5.4703196E-6,0E0,0E0,0E0],"parents":[2147483647,0,0,2,2,4,4,5,5,8,8,9,9],"right_children":[2,-1,4,-1,6,8,-1,-1,10,12,-1,-1,-1],"split_conditions":[-9.0409446E-1,2.1475269E-2,4.6949997E0,8.686281E-3,1.2833333E1,5.180917E0,2.7387142E-3,4.0769577E-5,6.647917E0,5.9366665E0,3.4625083E-4,2.357483E-4,1.4229298E-3],"split_indices":[2,0,1,0,0,0,0,0,0,0,0,0,0],"split_type":[0,0,0,0,0,0,0,0,0,0,0,0,0],"sum_hessian":[9E0,1E0,8E0,1E0,7E0,6E0,1E0,1E0,5E0,2E0,3E0,1E0,1E0],"tree_param":{"num_deleted":"0","num_feature":"3","num_nodes":"13","size_leaf_vector":"0"}},{"base_weights":[1.9964337E-2,6.0846806E-2,8.661085E-3,2.4611235E-2,3.5909116E-3,1.8868787E-3,7.759571E-3,1.155138E-4,2.162854E-3,3.1330585E-3,8.944869E-4,6.6792965E-4,4.031658E-3],"categories":[],"categories_nodes":[],"categories_segments":[],"categories_sizes":[],"default_left":[true,false,true,false,true,true,false,false,true,true,false,false,false],"id":26,"left_children":[1,-1,3,-1,5,7,-1,-1,9,11,-1,-1,-1],"loss_changes":[4.0940493E-3,0E0,6.394534E-4,0E0,4.218689E-5,3.1721283E-6,0E0,0E0,4.580972E-6,3.9526294E-6,2.0961784E-7,0E0,0E0],"parents":[2147483647,0,0,2,2,4,4,5,5,8,8,9,9],"right_children":[2,-1,4,-1,6,8,-1,-1,10,12,-1,-1,-1],"split_conditions":[-9.0409446E-1,1.8254042E-2,4.6949997E0,7.383371E-3,1.2833333E1,5.180917E0,2.3278715E-3,3.4654142E-5,6.647917E0,5.9366665E0,2.6834608E-4,2.003789E-4,1.2094975E-3],"split_indices":[2,0,1,0,0,0,0,0,0,0,0,0,0],"split_type":[0,0,0,0,0,0,0,0,0,0,0,0,0],"sum_hessian":[9E0,1E0,8E0,1E0,7E0,6E0,1E0,1E0,5E0,2E0,3E0,1E0,1E0],"tree_param":{"num_deleted":"0","num_feature":"3","num_nodes":"13","size_leaf_vector":"0"}},{"base_weights":[1.694281E-2,5.1719666E-2,7.3320866E-3,2.0919561E-2,3.018707E-3,1.5654905E-3,6.5956116E-3,1.8008947E-3,7.6532364E-5,6.4766407E-4,2.7382374E-3,3.4269094E-3,6.804466E-4],"categories":[],"categories_nodes":[],"categories_segments":[],"categories_sizes":[],"default_left":[true,false,true,false,true,true,false,true,false,false,true,false,false],"id":27,"left_children":[1,-1,3,-1,5,7,-1,9,-1,-1,11,-1,-1],"loss_changes":[2.9630945E-3,0E0,4.6432138E-4,0E0,3.1258773E-5,2.3157227E-6,0E0,4.712376E-6,0E0,2.5231975E-7,1.9195995E-6,0E0,0E0],"parents":[2147483647,0,0,2,2,4,4,5,5,7,7,10,10],"right_children":[2,-1,4,-1,6,8,-1,10,-1,-1,12,-1,-1],"split_conditions":[-9.0409446E-1,1.55159E-2,4.6949997E0,6.2758685E-3,1.2833333E1,4.409729E0,1.9786835E-3,5.66E0,2.295971E-5,1.9429922E-4,8.597917E0,1.0280729E-3,2.0413399E-4],"split_indices":[2,0,1,0,0,2,0,1,0,0,0,0,0],"split_type":[0,0,0,0,0,0,0,0,0,0,0,0,0],"sum_hessian":[9E0,1E0,8E0,1E0,7E0,6E0,1E0,5E0,1E0,3E0,2E0,1E0,1E0],"tree_param":{"num_deleted":"0","num_feature":"3","num_nodes":"13","size_leaf_vector":"0"}},{"base_weights":[1.4381927E-2,4.3961525E-2,6.2106913E-3,1.7781734E-2,2.5415942E-3,1.3029149E-3,5.6061745E-3,1.013279E-6,1.5197297E-3,2.2556384E-3,5.878657E-4,4.7057867E-4,2.912879E-3],"categories":[],"categories_nodes":[],"categories_segments":[],"categories_sizes":[],"default_left":[true,false,true,false,true,true,false,false,true,true,false,false,false],"id":28,"left_children":[1,-1,3,-1,5,7,-1,-1,9,11,-1,-1,-1],"loss_changes":[2.1439872E-3,0E0,3.3690358E-4,0E0,2.3063894E-5,1.9743593E-6,0E0,0E0,2.7885899E-6,2.1489031E-6,2.7091335E-7,0E0,0E0],"parents":[2147483647,0,0,2,2,4,4,5,5,8,8,9,9],"right_children":[2,-1,4,-1,6,8,-1,-1,10,12,-1,-1,-1],"split_conditions":[-9.0409446E-1,1.3188458E-2,4.6949997E0,5.3345207E-3,1.2833333E1,5.180917E0,1.6818524E-3,3.039837E-7,6.647917E0,5.9366665E0,1.7635972E-4,1.411736E-4,8.7386376E-4],"split_indices":[2,0,1,0,0,0,0,0,0,0,0,0,0],"split_type":[0,0,0,0,0,0,0,0,0,0,0,0,0],"sum_hessian":[9E0,1E0,8E0,1E0,7E0,6E0,1E0,1E0,5E0,2E0,3E0,1E0,1E0],"tree_param":{"num_deleted":"0","num_feature":"3","num_nodes":"13","size_leaf_vector":"0"}},{"base_weights":[1.2206984E-2,3.7367344E-2,5.259461E-3,1.5114546E-2,2.138257E-3,1.0822841E-3,4.7650337E-3,1.2703737E-3,-2.3126602E-5,4.2244792E-4,1.9774835E-3,2.475977E-3,4.902482E-4],"categories":[],"categories_nodes":[],"categories_segments":[],"categories_sizes":[],"default_left":[true,false,true,false,true,true,false,true,false,false,true,false,false],"id":29,"left_children":[1,-1,3,-1,5,7,-1,9,-1,-1,11,-1,-1],"loss_changes":[1.5514898E-3,0E0,2.445188E-4,0E0,1.7033319E-5,1.4847928E-6,0E0,2.7620754E-6,0E0,2.3607186E-7,1.0102876E-6,0E0,0E0],"parents":[2147483647,0,0,2,2,4,4,5,5,7,7,10,10],"right_children":[2,-1,4,-1,6,8,-1,10,-1,-1,12,-1,-1],"split_conditions":[-9.0409446E-1,1.1210203E-2,4.6949997E0,4.5343637E-3,1.2833333E1,4.409729E0,1.4295102E-3,5.66E0,-6.9379807E-6,1.2673438E-4,8.597917E0,7.4279314E-4,1.4707446E-4],"split_indices":[2,0,1,0,0,2,0,1,0,0,0,0,0],"split_type":[0,0,0,0,0,0,0,0,0,0,0,0,0],"sum_hessian":[9E0,1E0,8E0,1E0,7E0,6E0,1E0,5E0,1E0,3E0,2E0,1E0,1E0],"tree_param":{"num_deleted":"0","num_feature":"3","num_nodes":"13","size_leaf_vector":"0"}},{"base_weights":[1.0363221E-2,3.1762123E-2,4.4564405E-3,1.2847424E-2,1.8016398E-3,9.018012E-4,4.050255E-3,-6.252527E-5,1.0729432E-3,1.6274452E-3,3.888309E-4,3.3664703E-4,2.1045208E-3],"categories":[],"categories_nodes":[],"categories_segments":[],"categories_sizes":[],"default_left":[true,false,true,false,true,true,false,false,true,true,false,false,false],"id":30,"left_children":[1,-1,3,-1,5,7,-1,-1,9,11,-1,-1,-1],"loss_changes":[1.1224402E-3,0E0,1.7734108E-4,0E0,1.2534596E-5,1.2223436E-6,0E0,0E0,1.6432487E-6,1.1389438E-6,2.4366562E-7,0E0,0E0],"parents":[2147483647,0,0,2,2,4,4,5,5,8,8,9,9],"right_children":[2,-1,4,-1,6,8,-1,-1,10,12,-1,-1,-1],"split_conditions":[-9.0409446E-1,9.528637E-3,4.6949997E0,3.8542273E-3,1.2833333E1,5.180917E0,1.2150765E-3,-1.8757582E-5,6.647917E0,5.9366665E0,1.1664927E-4,1.0099411E-4,6.3135626E-4],"split_indices":[2,0,1,0,0,0,0,0,0,0,0,0,0],"split_type":[0,0,0,0,0,0,0,0,0,0,0,0,0],"sum_hessian":[9E0,1E0,8E0,1E0,7E0,6E0,1E0,1E0,5E0,2E0,3E0,1E0,1E0],"tree_param":{"num_deleted":"0","num_feature":"3","num_nodes":"13","size_leaf_vector":"0"}},{"base_weights":[8.797127E-3,2.6998043E-2,3.7750204E-3,1.0920286E-2,1.5168265E-3,7.49869E-4,3.4427643E-3],"categories":[],"categories_nodes":[],"categories_segments":[],"categories_sizes":[],"default_left":[true,false,true,false,true,false,false],"id":31,"left_children":[1,-1,3,-1,5,-1,-1],"loss_changes":[8.121512E-4,0E0,1.2865437E-4,0E0,9.235278E-6,9.4516827E-7,0E0],"parents":[2147483647,0,0,2,2,4,4],"right_children":[2,-1,4,-1,6,-1,-1],"split_conditions":[-9.0409446E-1,8.0994135E-3,4.6949997E0,3.276086E-3,1.2833333E1,2.249607E-4,1.0328293E-3],"split_indices":[2,0,1,0,0,0,0],"split_type":[0,0,0,0,0,0,0],"sum_hessian":[9E0,1E0,8E0,1E0,7E0,6E0,1E0],"tree_param":{"num_deleted":"0","num_feature":"3","num_nodes":"7","size_leaf_vector":"0"}},{"base_weights":[7.4213087E-3,2.2948265E-2,3.1462843E-3,9.282351E-3,1.218982E-3,5.5702246E-4,2.9263496E-3],"categories":[],"categories_nodes":[],"categories_segments":[],"categories_sizes":[],"default_left":[true,false,true,false,true,false,false],"id":32,"left_children":[1,-1,3,-1,5,-1,-1],"loss_changes":[5.915795E-4,0E0,9.511947E-5,0E0,7.4116233E-6,9.538328E-7,0E0],"parents":[2147483647,0,0,2,2,4,4],"right_children":[2,-1,4,-1,6,-1,-1],"split_conditions":[-9.0409446E-1,6.88448E-3,4.6949997E0,2.7847053E-3,1.2833333E1,1.6710674E-4,8.7790494E-4],"split_indices":[2,0,1,0,0,0,0],"split_type":[0,0,0,0,0,0,0],"sum_hessian":[9E0,1E0,8E0,1E0,7E0,6E0,1E0],"tree_param":{"num_deleted":"0","num_feature":"3","num_nodes":"7","size_leaf_vector":"0"}},{"base_weights":[6.266266E-3,1.9505978E-2,2.627856E-3,7.889986E-3,9.838417E-4,4.1376692E-4,2.4871826E-3],"categories":[],"categories_nodes":[],"categories_segments":[],"categories_sizes":[],"default_left":[true,false,true,false,true,false,false],"id":33,"left_children":[1,-1,3,-1,5,-1,-1],"loss_changes":[4.3045607E-4,0E0,7.0096656E-5,0E0,5.82702E-6,9.960964E-7,0E0],"parents":[2147483647,0,0,2,2,4,4],"right_children":[2,-1,4,-1,6,-1,-1],"split_conditions":[-9.0409446E-1,5.8517936E-3,4.6949997E0,2.366996E-3,1.2833333E1,1.2413008E-4,7.461548E-4],"split_indices":[2,0,1,0,0,0,0],"split_type":[0,0,0,0,0,0,0],"sum_hessian":[9E0,1E0,8E0,1E0,7E0,6E0,1E0],"tree_param":{"num_deleted":"0","num_feature":"3","num_nodes":"7","size_leaf_vector":"0"}},{"base_weights":[5.295324E-3,1.6580105E-2,2.199226E-3,6.706476E-3,7.9751015E-4,3.073556E-4,2.114296E-3,-1.09523535E-4,6.4739585E-4,1.5306473E-3,-1.5723705E-4],"categories":[],"categories_nodes":[],"categories_segments":[],"categories_sizes":[],"default_left":[true,false,true,false,true,true,false,false,true,false,false],"id":34,"left_children":[1,-1,3,-1,5,7,-1,-1,9,-1,-1],"loss_changes":[3.1292453E-4,0E0,5.151247E-5,0E0,4.513588E-6,1.063195E-6,0E0,1.5711481E-7,3.0834472E-6,0E0,1.7187232E-7],"parents":[2147483647,0,0,2,2,4,4,5,5,8,8],"right_children":[2,-1,4,-1,6,8,-1,-1,10,-1,-1],"split_conditions":[-9.0409446E-1,4.974032E-3,4.6949997E0,2.011943E-3,1.2833333E1,5.66E0,6.342888E-4,-3.285706E-5,6.647917E0,4.591942E-4,-4.7171117E-5],"split_indices":[2,0,1,0,0,1,0,0,0,0,0],"split_type":[0,0,0,0,0,0,0,0,0,0,0],"sum_hessian":[9E0,1E0,8E0,1E0,7E0,6E0,1E0,3E0,3E0,1E0,2E0],"tree_param":{"num_deleted":"0","num_feature":"3","num_nodes":"11","size_leaf_vector":"0"}},{"base_weights":[4.5066774E-3,1.4092922E-2,1.8756589E-3,5.700588E-3,6.849691E-4,2.6933636E-4,1.7971992E-3],"categories":[],"categories_nodes":[],"categories_segments":[],"categories_sizes":[],"default_left":[true,false,true,false,true,false,false],"id":35,"left_children":[1,-1,3,-1,5,-1,-1],"loss_changes":[2.2578238E-4,0E0,3.7084013E-5,0E0,3.2141832E-6,7.583724E-7,0E0],"parents":[2147483647,0,0,2,2,4,4],"right_children":[2,-1,4,-1,6,-1,-1],"split_conditions":[-9.0409446E-1,4.2278767E-3,4.6949997E0,1.7101766E-3,1.2833333E1,8.080091E-5,5.391598E-4],"split_indices":[2,0,1,0,0,0,0],"split_type":[0,0,0,0,0,0,0],"sum_hessian":[9E0,1E0,8E0,1E0,7E0,6E0,1E0],"tree_param":{"num_deleted":"0","num_feature":"3","num_nodes":"7","size_leaf_vector":"0"}},{"base_weights":[3.8104951E-3,1.1979103E-2,1.5718606E-3,4.845381E-3,5.5699795E-4,-1.4546514E-4,1.0075688E-3,1.4359355E-3,-3.529489E-4,1.8589497E-3,8.34465E-5],"categories":[],"categories_nodes":[],"categories_segments":[],"categories_sizes":[],"default_left":[true,false,true,false,true,false,true,true,false,false,false],"id":36,"left_children":[1,-1,3,-1,5,-1,7,9,-1,-1,-1],"loss_changes":[1.6403581E-4,0E0,2.7200693E-5,0E0,2.6786415E-6,1.4271484E-7,3.4208138E-6,2.1333663E-6,0E0,0E0,0E0],"parents":[2147483647,0,0,2,2,4,4,6,6,7,7],"right_children":[2,-1,4,-1,6,-1,8,10,-1,-1,-1],"split_conditions":[-9.0409446E-1,3.593731E-3,4.6949997E0,1.4536143E-3,5.66E0,-4.3639542E-5,3.8621683E0,9.42E0,-1.05884676E-4,5.576849E-4,2.5033953E-5],"split_indices":[2,0,1,0,1,0,2,1,0,0,0],"split_type":[0,0,0,0,0,0,0,0,0,0,0],"sum_hessian":[9E0,1E0,8E0,1E0,7E0,3E0,4E0,3E0,1E0,2E0,1E0],"tree_param":{"num_deleted":"0","num_feature":"3","num_nodes":"11","size_leaf_vector":"0"}},{"base_weights":[3.215426E-3,1.0182381E-2,1.3099445E-3,4.118681E-3,4.4401735E-4,1.5063796E-4,1.2488365E-3],"categories":[],"categories_nodes":[],"categories_segments":[],"categories_sizes":[],"default_left":[true,false,true,false,true,false,false],"id":37,"left_children":[1,-1,3,-1,5,-1,-1],"loss_changes":[1.1941568E-4,0E0,2.0060688E-5,0E0,1.7008166E-6,5.087086E-7,0E0],"parents":[2147483647,0,0,2,2,4,4],"right_children":[2,-1,4,-1,6,-1,-1],"split_conditions":[-9.0409446E-1,3.0547143E-3,4.6949997E0,1.2356043E-3,1.2833333E1,4.519139E-5,3.7465096E-4],"split_indices":[2,0,1,0,0,0,0],"split_type":[0,0,0,0,0,0,0],"sum_hessian":[9E0,1E0,8E0,1E0,7E0,6E0,1E0],"tree_param":{"num_deleted":"0","num_feature":"3","num_nodes":"7","size_leaf_vector":"0"}},{"base_weights":[2.7218044E-3,8.655071E-3,1.1008779E-3,3.5009384E-3,3.6325306E-4,-1.4665723E-4,6.985307E-4,1.0344684E-3,-3.2261014E-4,1.347065E-3,4.8339367E-5],"categories":[],"categories_nodes":[],"categories_segments":[],"categories_sizes":[],"default_left":[true,false,true,false,true,false,true,true,false,false,false],"id":38,"left_children":[1,-1,3,-1,5,-1,7,9,-1,-1,-1],"loss_changes":[8.664572E-5,0E0,1.4661373E-5,0E0,1.4701366E-6,1.4217547E-7,2.0489288E-6,1.1679263E-6,0E0,0E0,0E0],"parents":[2147483647,0,0,2,2,4,4,6,6,7,7],"right_children":[2,-1,4,-1,6,-1,8,10,-1,-1,-1],"split_conditions":[-9.0409446E-1,2.5965215E-3,4.6949997E0,1.0502816E-3,5.66E0,-4.399717E-5,3.8621683E0,9.42E0,-9.678305E-5,4.0411952E-4,1.450181E-5],"split_indices":[2,0,1,0,1,0,2,1,0,0,0],"split_type":[0,0,0,0,0,0,0,0,0,0,0],"sum_hessian":[9E0,1E0,8E0,1E0,7E0,3E0,4E0,3E0,1E0,2E0,1E0],"tree_param":{"num_deleted":"0","num_feature":"3","num_nodes":"11","size_leaf_vector":"0"}},{"base_weights":[2.2976578E-3,7.3566437E-3,9.181433E-4,2.9757023E-3,2.8898567E-4],"categories":[],"categories_nodes":[],"categories_segments":[],"categories_sizes":[],"default_left":[true,false,true,false,false],"id":39,"left_children":[1,-1,3,-1,-1],"loss_changes":[6.303498E-5,0E0,1.0790825E-5,0E0,9.141785E-7],"parents":[2147483647,0,0,2,2],"right_children":[2,-1,4,-1,-1],"split_conditions":[-9.0409446E-1,2.2069933E-3,4.6949997E0,8.927107E-4,8.6695705E-5],"split_indices":[2,0,1,0,0],"split_type":[0,0,0,0,0],"sum_hessian":[9E0,1E0,8E0,1E0,7E0],"tree_param":{"num_deleted":"0","num_feature":"3","num_nodes":"5","size_leaf_vector":"0"}},{"base_weights":[1.9270063E-3,6.2532425E-3,7.5150863E-4,2.5293827E-3,2.131015E-4],"categories":[],"categories_nodes":[],"categories_segments":[],"categories_sizes":[],"default_left":[true,false,true,false,false],"id":40,"left_children":[1,-1,3,-1,-1],"loss_changes":[4.615544E-5,0E0,8.075965E-6,0E0,9.687473E-7],"parents":[2147483647,0,0,2,2],"right_children":[2,-1,4,-1,-1],"split_conditions":[-9.0409446E-1,1.8759728E-3,4.6949997E0,7.5881486E-4,6.3930456E-5],"split_indices":[2,0,1,0,0],"split_type":[0,0,0,0,0],"sum_hessian":[9E0,1E0,8E0,1E0,7E0],"tree_param":{"num_deleted":"0","num_feature":"3","num_nodes":"5","size_leaf_vector":"0"}},{"base_weights":[1.6188205E-3,5.315304E-3,6.1751076E-4,2.1500587E-3,1.571849E-4,-4.433734E-5,7.839203E-4],"categories":[],"categories_nodes":[],"categories_segments":[],"categories_sizes":[],"default_left":[true,false,true,false,true,false,false],"id":41,"left_children":[1,-1,3,-1,5,-1,-1],"loss_changes":[3.373099E-5,0E0,6.011286E-6,0E0,1.045166E-6,3.2584836E-7,0E0],"parents":[2147483647,0,0,2,2,4,4],"right_children":[2,-1,4,-1,6,-1,-1],"split_conditions":[-9.0409446E-1,1.5945912E-3,4.6949997E0,6.4501766E-4,1.2833333E1,-1.3301203E-5,2.3517609E-4],"split_indices":[2,0,1,0,0,0,0],"split_type":[0,0,0,0,0,0,0],"sum_hessian":[9E0,1E0,8E0,1E0,7E0,6E0,1E0],"tree_param":{"num_deleted":"0","num_feature":"3","num_nodes":"7","size_leaf_vector":"0"}},{"base_weights":[1.3792992E-3,4.518032E-3,5.285475E-4,1.8274784E-3,1.3774633E-4],"categories":[],"categories_nodes":[],"categories_segments":[],"categories_sizes":[],"default_left":[true,false,true,false,false],"id":42,"left_children":[1,-1,3,-1,-1],"loss_changes":[2.4314828E-5,0E0,4.3168848E-6,0E0,8.1063695E-7],"parents":[2147483647,0,0,2,2],"right_children":[2,-1,4,-1,-1],"split_conditions":[-9.0409446E-1,1.3554096E-3,4.6949997E0,5.482435E-4,4.1323903E-5],"split_indices":[2,0,1,0,0],"split_type":[0,0,0,0,0],"sum_hessian":[9E0,1E0,8E0,1E0,7E0],"tree_param":{"num_deleted":"0","num_feature":"3","num_nodes":"5","size_leaf_vector":"0"}},{"base_weights":[1.1600554E-3,3.8404465E-3,4.355179E-4,1.553297E-3,1.0163337E-4],"categories":[],"categories_nodes":[],"categories_segments":[],"categories_sizes":[],"default_left":[true,false,true,false,false],"id":43,"left_children":[1,-1,3,-1,-1],"loss_changes":[1.7747856E-5,0E0,3.2010157E-6,0E0,8.129307E-7],"parents":[2147483647,0,0,2,2],"right_children":[2,-1,4,-1,-1],"split_conditions":[-9.0409446E-1,1.152134E-3,4.6949997E0,4.6598914E-4,3.0490011E-5],"split_indices":[2,0,1,0,0],"split_type":[0,0,0,0,0],"sum_hessian":[9E0,1E0,8E0,1E0,7E0],"tree_param":{"num_deleted":"0","num_feature":"3","num_nodes":"5","size_leaf_vector":"0"}},{"base_weights":[9.769022E-4,3.2644272E-3,3.600187E-4,-8.905927E-5,9.4363093E-4,1.3004938E-3,-6.347895E-5],"categories":[],"categories_nodes":[],"categories_segments":[],"categories_sizes":[],"default_left":[true,false,true,false,true,false,false],"id":44,"left_children":[1,-1,3,-1,5,-1,-1],"loss_changes":[1.29361115E-5,0E0,2.4428257E-6,3.4490392E-7,1.5201547E-6,0E0,0E0],"parents":[2147483647,0,0,2,2,4,4],"right_children":[2,-1,4,-1,6,-1,-1],"split_conditions":[-9.0409446E-1,9.793282E-4,7.979167E0,-2.6717782E-5,9.42E0,3.9014817E-4,-1.9043684E-5],"split_indices":[2,0,0,0,1,0,0],"split_type":[0,0,0,0,0,0,0],"sum_hessian":[9E0,1E0,8E0,5E0,3E0,2E0,1E0],"tree_param":{"num_deleted":"0","num_feature":"3","num_nodes":"7","size_leaf_vector":"0"}},{"base_weights":[8.1620814E-4,2.7747154E-3,2.902945E-4,1.1253357E-3,4.5247376E-5],"categories":[],"categories_nodes":[],"categories_segments":[],"categories_sizes":[],"default_left":[true,false,true,false,false],"id":45,"left_children":[1,-1,3,-1,-1],"loss_changes":[9.494573E-6,0E0,1.7907014E-6,0E0,6.064126E-7],"parents":[2147483647,0,0,2,2],"right_children":[2,-1,4,-1,-1],"split_conditions":[-9.0409446E-1,8.3241466E-4,4.6949997E0,3.376007E-4,1.3574213E-5],"split_indices":[2,0,1,0,0],"split_type":[0,0,0,0,0],"sum_hessian":[9E0,1E0,8E0,1E0,7E0],"tree_param":{"num_deleted":"0","num_feature":"3","num_nodes":"5","size_leaf_vector":"0"}},{"base_weights":[6.897032E-4,2.3584366E-3,2.422399E-4,9.5653534E-4,3.338605E-5],"categories":[],"categories_nodes":[],"categories_segments":[],"categories_sizes":[],"default_left":[true,false,true,false,false],"id":46,"left_children":[1,-1,3,-1,-1],"loss_changes":[6.8956624E-6,0E0,1.3107152E-6,0E0,6.057735E-7],"parents":[2147483647,0,0,2,2],"right_children":[2,-1,4,-1,-1],"split_conditions":[-9.0409446E-1,7.07531E-4,4.6949997E0,2.8696063E-4,1.0015816E-5],"split_indices":[2,0,1,0,0],"split_type":[0,0,0,0,0],"sum_hessian":[9E0,1E0,8E0,1E0,7E0],"tree_param":{"num_deleted":"0","num_feature":"3","num_nodes":"5","size_leaf_vector":"0"}},{"base_weights":[5.831778E-4,2.0046234E-3,2.0250346E-4,-3.2977262E-4,4.0169273E-4,7.299185E-4,-2.7924776E-4],"categories":[],"categories_nodes":[],"categories_segments":[],"categories_sizes":[],"default_left":[true,false,true,false,true,false,false],"id":47,"left_children":[1,-1,3,-1,5,-1,-1],"loss_changes":[5.005136E-6,0E0,1.0866804E-6,3.358184E-8,1.7683436E-6,9.188816E-7,5.418555E-8],"parents":[2147483647,0,0,2,2,4,4],"right_children":[2,-1,4,-1,6,-1,-1],"split_conditions":[-9.0409446E-1,6.0138706E-4,5.9366665E0,-9.893179E-5,3.8912308E0,2.1897555E-4,-8.377433E-5],"split_indices":[2,0,0,0,2,0,0],"split_type":[0,0,0,0,0,0,0],"sum_hessian":[9E0,1E0,8E0,2E0,6E0,4E0,2E0],"tree_param":{"num_deleted":"0","num_feature":"3","num_nodes":"7","size_leaf_vector":"0"}},{"base_weights":[4.7192574E-4,1.7037392E-3,1.4575322E-4,-3.6183992E-4,3.4247126E-4,6.1352254E-4,-2.2343795E-4],"categories":[],"categories_nodes":[],"categories_segments":[],"categories_sizes":[],"default_left":[true,false,true,false,true,false,false],"id":48,"left_children":[1,-1,3,-1,5,-1,-1],"loss_changes":[3.7695115E-6,0E0,1.0225943E-6,0E0,1.2108171E-6,5.593822E-7,7.520663E-8],"parents":[2147483647,0,0,2,2,4,4],"right_children":[2,-1,4,-1,6,-1,-1],"split_conditions":[-9.0409446E-1,5.1112176E-4,2.3305407E0,-1.0855198E-4,3.8912308E0,1.8405677E-4,-6.703139E-5],"split_indices":[2,0,2,0,2,0,0],"split_type":[0,0,0,0,0,0,0],"sum_hessian":[9E0,1E0,8E0,2E0,6E0,4E0,2E0],"tree_param":{"num_deleted":"0","num_feature":"3","num_nodes":"7","size_leaf_vector":"0"}},{"base_weights":[3.8231016E-4,1.4481544E-3,1.02976956E-4],"categories":[],"categories_nodes":[],"categories_segments":[],"categories_sizes":[],"default_left":[true,false,false],"id":49,"left_children":[1,-1,-1],"loss_changes":[2.8281304E-6,0E0,6.635068E-7],"parents":[2147483647,0,0],"right_children":[2,-1,-1],"split_conditions":[-9.0409446E-1,4.3444635E-4,3.0893087E-5],"split_indices":[2,0,0],"split_type":[0,0,0],"sum_hessian":[9E0,1E0,8E0],"tree_param":{"num_deleted":"0","num_feature":"3","num_nodes":"3","size_leaf_vector":"0"}},{"base_weights":[3.1412244E-4,1.2307167E-3,7.553233E-5],"categories":[],"categories_nodes":[],"categories_segments":[],"categories_sizes":[],"default_left":[true,false,false],"id":50,"left_children":[1,-1,-1],"loss_changes":[2.0939442E-6,0E0,6.920032E-7],"parents":[2147483647,0,0],"right_children":[2,-1,-1],"split_conditions":[-9.0409446E-1,3.6921503E-4,2.2659699E-5],"split_indices":[2,0,0],"split_type":[0,0,0],"sum_hessian":[9E0,1E0,8E0],"tree_param":{"num_deleted":"0","num_feature":"3","num_nodes":"3","size_leaf_vector":"0"}},{"base_weights":[2.5904775E-4,-1.2762348E-4,6.7124364E-4,9.1290474E-4,-1.4770031E-4],"categories":[],"categories_nodes":[],"categories_segments":[],"categories_sizes":[],"default_left":[true,false,true,false,false],"id":51,"left_children":[1,-1,3,-1,-1],"loss_changes":[1.6795094E-6,2.2929652E-7,1.1243708E-6,2.8842828E-7,0E0],"parents":[2147483647,0,0,2,2],"right_children":[2,-1,4,-1,-1],"split_conditions":[7.979167E0,-3.8287046E-5,1.0344999E1,2.7387144E-4,-4.4310094E-5],"split_indices":[0,0,1,0,0],"split_type":[0,0,0,0,0],"sum_hessian":[9E0,5E0,4E0,3E0,1E0],"tree_param":{"num_deleted":"0","num_feature":"3","num_nodes":"5","size_leaf_vector":"0"}},{"base_weights":[2.0052791E-4,9.0932846E-4,2.0735793E-5],"categories":[],"categories_nodes":[],"categories_segments":[],"categories_sizes":[],"default_left":[true,false,false],"id":52,"left_children":[1,-1,-1],"loss_changes":[1.2555118E-6,0E0,5.0624567E-7],"parents":[2147483647,0,0],"right_children":[2,-1,-1],"split_conditions":[-9.0409446E-1,2.7279856E-4,6.220738E-6],"split_indices":[2,0,0],"split_type":[0,0,0],"sum_hessian":[9E0,1E0,8E0],"tree_param":{"num_deleted":"0","num_feature":"3","num_nodes":"3","size_leaf_vector":"0"}},{"base_weights":[1.6824603E-4],"categories":[],"categories_nodes":[],"categories_segments":[],"categories_sizes":[],"default_left":[false],"id":53,"left_children":[-1],"loss_changes":[9.1391746E-7],"parents":[2147483647],"right_children":[-1],"split_conditions":[5.047381E-5],"split_indices":[0],"split_type":[0],"sum_hessian":[9E0],"tree_param":{"num_deleted":"0","num_feature":"3","num_nodes":"1","size_leaf_vector":"0"}},{"base_weights":[1.2279749E-4],"categories":[],"categories_nodes":[],"categories_segments":[],"categories_sizes":[],"default_left":[false],"id":54,"left_children":[-1],"loss_changes":[9.752046E-7],"parents":[2147483647],"right_children":[-1],"split_conditions":[3.6839247E-5],"split_indices":[0],"split_type":[0],"sum_hessian":[9E0],"tree_param":{"num_deleted":"0","num_feature":"3","num_nodes":"1","size_leaf_vector":"0"}},{"base_weights":[8.956194E-5,7.29084E-4,-6.25054E-5],"categories":[],"categories_nodes":[],"categories_segments":[],"categories_sizes":[],"default_left":[true,false,false],"id":55,"left_children":[1,-1,-1],"loss_changes":[1.0180759E-6,0E0,5.192346E-7],"parents":[2147483647,0,0],"right_children":[2,-1,-1],"split_conditions":[-9.0409446E-1,2.1872521E-4,-1.8751622E-5],"split_indices":[2,0,0],"split_type":[0,0,0],"sum_hessian":[9E0,1E0,8E0],"tree_param":{"num_deleted":"0","num_feature":"3","num_nodes":"3","size_leaf_vector":"0"}},{"base_weights":[8.274913E-5],"categories":[],"categories_nodes":[],"categories_segments":[],"categories_sizes":[],"default_left":[false],"id":56,"left_children":[-1],"loss_changes":[7.3602223E-7],"parents":[2147483647],"right_children":[-1],"split_conditions":[2.482474E-5],"split_indices":[0],"split_type":[0],"sum_hessian":[9E0],"tree_param":{"num_deleted":"0","num_feature":"3","num_nodes":"1","size_leaf_vector":"0"}},{"base_weights":[6.043315E-5],"categories":[],"categories_nodes":[],"categories_segments":[],"categories_sizes":[],"default_left":[false],"id":57,"left_children":[-1],"loss_changes":[7.430004E-7],"parents":[2147483647],"right_children":[-1],"split_conditions":[1.8129946E-5],"split_indices":[0],"split_type":[0],"sum_hessian":[9E0],"tree_param":{"num_deleted":"0","num_feature":"3","num_nodes":"1","size_leaf_vector":"0"}},{"base_weights":[4.4125318E-5],"categories":[],"categories_nodes":[],"categories_segments":[],"categories_sizes":[],"default_left":[false],"id":58,"left_children":[-1],"loss_changes":[7.6020615E-7],"parents":[2147483647],"right_children":[-1],"split_conditions":[1.3237596E-5],"split_indices":[0],"split_type":[0],"sum_hessian":[9E0],"tree_param":{"num_deleted":"0","num_feature":"3","num_nodes":"1","size_leaf_vector":"0"}},{"base_weights":[3.2156706E-5],"categories":[],"categories_nodes":[],"categories_segments":[],"categories_sizes":[],"default_left":[false],"id":59,"left_children":[-1],"loss_changes":[7.725567E-7],"parents":[2147483647],"right_children":[-1],"split_conditions":[9.647012E-6],"split_indices":[0],"split_type":[0],"sum_hessian":[9E0],"tree_param":{"num_deleted":"0","num_feature":"3","num_nodes":"1","size_leaf_vector":"0"}},{"base_weights":[2.3525954E-5],"categories":[],"categories_nodes":[],"categories_segments":[],"categories_sizes":[],"default_left":[false],"id":60,"left_children":[-1],"loss_changes":[7.8148094E-7],"parents":[2147483647],"right_children":[-1],"split_conditions":[7.0577867E-6],"split_indices":[0],"split_type":[0],"sum_hessian":[9E0],"tree_param":{"num_deleted":"0","num_feature":"3","num_nodes":"1","size_leaf_vector":"0"}},{"base_weights":[1.7231703E-5],"categories":[],"categories_nodes":[],"categories_segments":[],"categories_sizes":[],"default_left":[false],"id":61,"left_children":[-1],"loss_changes":[7.883207E-7],"parents":[2147483647],"right_children":[-1],"split_conditions":[5.169511E-6],"split_indices":[0],"split_type":[0],"sum_hessian":[9E0],"tree_param":{"num_deleted":"0","num_feature":"3","num_nodes":"1","size_leaf_vector":"0"}},{"base_weights":[1.2648105E-5],"categories":[],"categories_nodes":[],"categories_segments":[],"categories_sizes":[],"default_left":[false],"id":62,"left_children":[-1],"loss_changes":[7.934032E-7],"parents":[2147483647],"right_children":[-1],"split_conditions":[3.7944317E-6],"split_indices":[0],"split_type":[0],"sum_hessian":[9E0],"tree_param":{"num_deleted":"0","num_feature":"3","num_nodes":"1","size_leaf_vector":"0"}},{"base_weights":[9.214878E-6],"categories":[],"categories_nodes":[],"categories_segments":[],"categories_sizes":[],"default_left":[false],"id":63,"left_children":[-1],"loss_changes":[7.9685606E-7],"parents":[2147483647],"right_children":[-1],"split_conditions":[2.7644637E-6],"split_indices":[0],"split_type":[0],"sum_hessian":[9E0],"tree_param":{"num_deleted":"0","num_feature":"3","num_nodes":"1","size_leaf_vector":"0"}},{"base_weights":[6.687641E-6],"categories":[],"categories_nodes":[],"categories_segments":[],"categories_sizes":[],"default_left":[false],"id":64,"left_children":[-1],"loss_changes":[7.9931453E-7],"parents":[2147483647],"right_children":[-1],"split_conditions":[2.0062923E-6],"split_indices":[0],"split_type":[0],"sum_hessian":[9E0],"tree_param":{"num_deleted":"0","num_feature":"3","num_nodes":"1","size_leaf_vector":"0"}},{"base_weights":[4.9233436E-6],"categories":[],"categories_nodes":[],"categories_segments":[],"categories_sizes":[],"default_left":[false],"id":65,"left_children":[-1],"loss_changes":[8.0115205E-7],"parents":[2147483647],"right_children":[-1],"split_conditions":[1.4770031E-6],"split_indices":[0],"split_type":[0],"sum_hessian":[9E0],"tree_param":{"num_deleted":"0","num_feature":"3","num_nodes":"1","size_leaf_vector":"0"}},{"base_weights":[3.5345554E-6],"categories":[],"categories_nodes":[],"categories_segments":[],"categories_sizes":[],"default_left":[false],"id":66,"left_children":[-1],"loss_changes":[8.0202744E-7],"parents":[2147483647],"right_children":[-1],"split_conditions":[1.0603667E-6],"split_indices":[0],"split_type":[0],"sum_hessian":[9E0],"tree_param":{"num_deleted":"0","num_feature":"3","num_nodes":"1","size_leaf_vector":"0"}},{"base_weights":[2.6285647E-6],"categories":[],"categories_nodes":[],"categories_segments":[],"categories_sizes":[],"default_left":[false],"id":67,"left_children":[-1],"loss_changes":[8.030039E-7],"parents":[2147483647],"right_children":[-1],"split_conditions":[7.885695E-7],"split_indices":[0],"split_type":[0],"sum_hessian":[9E0],"tree_param":{"num_deleted":"0","num_feature":"3","num_nodes":"1","size_leaf_vector":"0"}},{"base_weights":[1.8715858E-6],"categories":[],"categories_nodes":[],"categories_segments":[],"categories_sizes":[],"default_left":[false],"id":68,"left_children":[-1],"loss_changes":[8.0359933E-7],"parents":[2147483647],"right_children":[-1],"split_conditions":[5.6147576E-7],"split_indices":[0],"split_type":[0],"sum_hessian":[9E0],"tree_param":{"num_deleted":"0","num_feature":"3","num_nodes":"1","size_leaf_vector":"0"}},{"base_weights":[1.3053417E-6],"categories":[],"categories_nodes":[],"categories_segments":[],"categories_sizes":[],"default_left":[false],"id":69,"left_children":[-1],"loss_changes":[8.037073E-7],"parents":[2147483647],"right_children":[-1],"split_conditions":[3.9160253E-7],"split_indices":[0],"split_type":[0],"sum_hessian":[9E0],"tree_param":{"num_deleted":"0","num_feature":"3","num_nodes":"1","size_leaf_vector":"0"}},{"base_weights":[1.013279E-6],"categories":[],"categories_nodes":[],"categories_segments":[],"categories_sizes":[],"default_left":[false],"id":70,"left_children":[-1],"loss_changes":[8.044523E-7],"parents":[2147483647],"right_children":[-1],"split_conditions":[3.039837E-7],"split_indices":[0],"split_type":[0],"sum_hessian":[9E0],"tree_param":{"num_deleted":"0","num_feature":"3","num_nodes":"1","size_leaf_vector":"0"}},{"base_weights":[7.8082087E-7],"categories":[],"categories_nodes":[],"categories_segments":[],"categories_sizes":[],"default_left":[false],"id":71,"left_children":[-1],"loss_changes":[8.0504554E-7],"parents":[2147483647],"right_children":[-1],"split_conditions":[2.3424627E-7],"split_indices":[0],"split_type":[0],"sum_hessian":[9E0],"tree_param":{"num_deleted":"0","num_feature":"3","num_nodes":"1","size_leaf_vector":"0"}},{"base_weights":[6.377697E-7],"categories":[],"categories_nodes":[],"categories_segments":[],"categories_sizes":[],"default_left":[false],"id":72,"left_children":[-1],"loss_changes":[8.054106E-7],"parents":[2147483647],"right_children":[-1],"split_conditions":[1.9133091E-7],"split_indices":[0],"split_type":[0],"sum_hessian":[9E0],"tree_param":{"num_deleted":"0","num_feature":"3","num_nodes":"1","size_leaf_vector":"0"}},{"base_weights":[5.00679E-7],"categories":[],"categories_nodes":[],"categories_segments":[],"categories_sizes":[],"default_left":[false],"id":73,"left_children":[-1],"loss_changes":[8.057606E-7],"parents":[2147483647],"right_children":[-1],"split_conditions":[1.502037E-7],"split_indices":[0],"split_type":[0],"sum_hessian":[9E0],"tree_param":{"num_deleted":"0","num_feature":"3","num_nodes":"1","size_leaf_vector":"0"}},{"base_weights":[3.993511E-7],"categories":[],"categories_nodes":[],"categories_segments":[],"categories_sizes":[],"default_left":[false],"id":74,"left_children":[-1],"loss_changes":[8.060192E-7],"parents":[2147483647],"right_children":[-1],"split_conditions":[1.1980534E-7],"split_indices":[0],"split_type":[0],"sum_hessian":[9E0],"tree_param":{"num_deleted":"0","num_feature":"3","num_nodes":"1","size_leaf_vector":"0"}},{"base_weights":[3.0398368E-7],"categories":[],"categories_nodes":[],"categories_segments":[],"categories_sizes":[],"default_left":[false],"id":75,"left_children":[-1],"loss_changes":[8.062627E-7],"parents":[2147483647],"right_children":[-1],"split_conditions":[9.119511E-8],"split_indices":[0],"split_type":[0],"sum_hessian":[9E0],"tree_param":{"num_deleted":"0","num_feature":"3","num_nodes":"1","size_leaf_vector":"0"}},{"base_weights":[2.5629998E-7],"categories":[],"categories_nodes":[],"categories_segments":[],"categories_sizes":[],"default_left":[false],"id":76,"left_children":[-1],"loss_changes":[8.063844E-7],"parents":[2147483647],"right_children":[-1],"split_conditions":[7.689E-8],"split_indices":[0],"split_type":[0],"sum_hessian":[9E0],"tree_param":{"num_deleted":"0","num_feature":"3","num_nodes":"1","size_leaf_vector":"0"}},{"base_weights":[2.1457672E-7],"categories":[],"categories_nodes":[],"categories_segments":[],"categories_sizes":[],"default_left":[false],"id":77,"left_children":[-1],"loss_changes":[8.0649096E-7],"parents":[2147483647],"right_children":[-1],"split_conditions":[6.437302E-8],"split_indices":[0],"split_type":[0],"sum_hessian":[9E0],"tree_param":{"num_deleted":"0","num_feature":"3","num_nodes":"1","size_leaf_vector":"0"}},{"base_weights":[1.7285348E-7],"categories":[],"categories_nodes":[],"categories_segments":[],"categories_sizes":[],"default_left":[false],"id":78,"left_children":[-1],"loss_changes":[8.065975E-7],"parents":[2147483647],"right_children":[-1],"split_conditions":[5.1856045E-8],"split_indices":[0],"split_type":[0],"sum_hessian":[9E0],"tree_param":{"num_deleted":"0","num_feature":"3","num_nodes":"1","size_leaf_vector":"0"}},{"base_weights":[1.66893E-7],"categories":[],"categories_nodes":[],"categories_segments":[],"categories_sizes":[],"default_left":[false],"id":79,"left_children":[-1],"loss_changes":[8.066127E-7],"parents":[2147483647],"right_children":[-1],"split_conditions":[5.0067904E-8],"split_indices":[0],"split_type":[0],"sum_hessian":[9E0],"tree_param":{"num_deleted":"0","num_feature":"3","num_nodes":"1","size_leaf_vector":"0"}},{"base_weights":[1.6093254E-7],"categories":[],"categories_nodes":[],"categories_segments":[],"categories_sizes":[],"default_left":[false],"id":80,"left_children":[-1],"loss_changes":[8.066279E-7],"parents":[2147483647],"right_children":[-1],"split_conditions":[4.8279766E-8],"split_indices":[0],"split_type":[0],"sum_hessian":[9E0],"tree_param":{"num_deleted":"0","num_feature":"3","num_nodes":"1","size_leaf_vector":"0"}},{"base_weights":[1.5497207E-7],"categories":[],"categories_nodes":[],"categories_segments":[],"categories_sizes":[],"default_left":[false],"id":81,"left_children":[-1],"loss_changes":[8.0664313E-7],"parents":[2147483647],"right_children":[-1],"split_conditions":[4.6491625E-8],"split_indices":[0],"split_type":[0],"sum_hessian":[9E0],"tree_param":{"num_deleted":"0","num_feature":"3","num_nodes":"1","size_leaf_vector":"0"}},{"base_weights":[1.4901161E-7],"categories":[],"categories_nodes":[],"categories_segments":[],"categories_sizes":[],"default_left":[false],"id":82,"left_children":[-1],"loss_changes":[8.0665836E-7],"parents":[2147483647],"right_children":[-1],"split_conditions":[4.4703484E-8],"split_indices":[0],"split_type":[0],"sum_hessian":[9E0],"tree_param":{"num_deleted":"0","num_feature":"3","num_nodes":"1","size_leaf_vector":"0"}},{"base_weights":[1.4305115E-7],"categories":[],"categories_nodes":[],"categories_segments":[],"categories_sizes":[],"default_left":[false],"id":83,"left_children":[-1],"loss_changes":[8.0667354E-7],"parents":[2147483647],"right_children":[-1],"split_conditions":[4.2915346E-8],"split_indices":[0],"split_type":[0],"sum_hessian":[9E0],"tree_param":{"num_deleted":"0","num_feature":"3","num_nodes":"1","size_leaf_vector":"0"}},{"base_weights":[1.3709068E-7],"categories":[],"categories_nodes":[],"categories_segments":[],"categories_sizes":[],"default_left":[false],"id":84,"left_children":[-1],"loss_changes":[8.066888E-7],"parents":[2147483647],"right_children":[-1],"split_conditions":[4.1127205E-8],"split_indices":[0],"split_type":[0],"sum_hessian":[9E0],"tree_param":{"num_deleted":"0","num_feature":"3","num_nodes":"1","size_leaf_vector":"0"}},{"base_weights":[1.3113022E-7],"categories":[],"categories_nodes":[],"categories_segments":[],"categories_sizes":[],"default_left":[false],"id":85,"left_children":[-1],"loss_changes":[8.06704E-7],"parents":[2147483647],"right_children":[-1],"split_conditions":[3.9339067E-8],"split_indices":[0],"split_type":[0],"sum_hessian":[9E0],"tree_param":{"num_deleted":"0","num_feature":"3","num_nodes":"1","size_leaf_vector":"0"}},{"base_weights":[1.2516975E-7],"categories":[],"categories_nodes":[],"categories_segments":[],"categories_sizes":[],"default_left":[false],"id":86,"left_children":[-1],"loss_changes":[8.0671924E-7],"parents":[2147483647],"right_children":[-1],"split_conditions":[3.7550926E-8],"split_indices":[0],"split_type":[0],"sum_hessian":[9E0],"tree_param":{"num_deleted":"0","num_feature":"3","num_nodes":"1","size_leaf_vector":"0"}},{"base_weights":[1.1920929E-7],"categories":[],"categories_nodes":[],"categories_segments":[],"categories_sizes":[],"default_left":[false],"id":87,"left_children":[-1],"loss_changes":[8.067344E-7],"parents":[2147483647],"right_children":[-1],"split_conditions":[3.576279E-8],"split_indices":[0],"split_type":[0],"sum_hessian":[9E0],"tree_param":{"num_deleted":"0","num_feature":"3","num_nodes":"1","size_leaf_vector":"0"}},{"base_weights":[1.13248824E-7],"categories":[],"categories_nodes":[],"categories_segments":[],"categories_sizes":[],"default_left":[false],"id":88,"left_children":[-1],"loss_changes":[8.0674965E-7],"parents":[2147483647],"right_children":[-1],"split_conditions":[3.3974647E-8],"split_indices":[0],"split_type":[0],"sum_hessian":[9E0],"tree_param":{"num_deleted":"0","num_feature":"3","num_nodes":"1","size_leaf_vector":"0"}},{"base_weights":[1.0728836E-7],"categories":[],"categories_nodes":[],"categories_segments":[],"categories_sizes":[],"default_left":[false],"id":89,"left_children":[-1],"loss_changes":[8.067649E-7],"parents":[2147483647],"right_children":[-1],"split_conditions":[3.218651E-8],"split_indices":[0],"split_type":[0],"sum_hessian":[9E0],"tree_param":{"num_deleted":"0","num_feature":"3","num_nodes":"1","size_leaf_vector":"0"}},{"base_weights":[1.013279E-7],"categories":[],"categories_nodes":[],"categories_segments":[],"categories_sizes":[],"default_left":[false],"id":90,"left_children":[-1],"loss_changes":[8.067801E-7],"parents":[2147483647],"right_children":[-1],"split_conditions":[3.0398372E-8],"split_indices":[0],"split_type":[0],"sum_hessian":[9E0],"tree_param":{"num_deleted":"0","num_feature":"3","num_nodes":"1","size_leaf_vector":"0"}},{"base_weights":[9.536743E-8],"categories":[],"categories_nodes":[],"categories_segments":[],"categories_sizes":[],"default_left":[false],"id":91,"left_children":[-1],"loss_changes":[8.067953E-7],"parents":[2147483647],"right_children":[-1],"split_conditions":[2.861023E-8],"split_indices":[0],"split_type":[0],"sum_hessian":[9E0],"tree_param":{"num_deleted":"0","num_feature":"3","num_nodes":"1","size_leaf_vector":"0"}},{"base_weights":[9.536743E-8],"categories":[],"categories_nodes":[],"categories_segments":[],"categories_sizes":[],"default_left":[false],"id":92,"left_children":[-1],"loss_changes":[8.067953E-7],"parents":[2147483647],"right_children":[-1],"split_conditions":[2.861023E-8],"split_indices":[0],"split_type":[0],"sum_hessian":[9E0],"tree_param":{"num_deleted":"0","num_feature":"3","num_nodes":"1","size_leaf_vector":"0"}},{"base_weights":[9.536743E-8],"categories":[],"categories_nodes":[],"categories_segments":[],"categories_sizes":[],"default_left":[false],"id":93,"left_children":[-1],"loss_changes":[8.067953E-7],"parents":[2147483647],"right_children":[-1],"split_conditions":[2.861023E-8],"split_indices":[0],"split_type":[0],"sum_hessian":[9E0],"tree_param":{"num_deleted":"0","num_feature":"3","num_nodes":"1","size_leaf_vector":"0"}},{"base_weights":[9.536743E-8],"categories":[],"categories_nodes":[],"categories_segments":[],"categories_sizes":[],"default_left":[false],"id":94,"left_children":[-1],"loss_changes":[8.067953E-7],"parents":[2147483647],"right_children":[-1],"split_conditions":[2.861023E-8],"split_indices":[0],"split_type":[0],"sum_hessian":[9E0],"tree_param":{"num_deleted":"0","num_feature":"3","num_nodes":"1","size_leaf_vector":"0"}},{"base_weights":[9.536743E-8],"categories":[],"categories_nodes":[],"categories_segments":[],"categories_sizes":[],"default_left":[false],"id":95,"left_children":[-1],"loss_changes":[8.067953E-7],"parents":[2147483647],"right_children":[-1],"split_conditions":[2.861023E-8],"split_indices":[0],"split_type":[0],"sum_hessian":[9E0],"tree_param":{"num_deleted":"0","num_feature":"3","num_nodes":"1","size_leaf_vector":"0"}},{"base_weights":[9.536743E-8],"categories":[],"categories_nodes":[],"categories_segments":[],"categories_sizes":[],"default_left":[false],"id":96,"left_children":[-1],"loss_changes":[8.067953E-7],"parents":[2147483647],"right_children":[-1],"split_conditions":[2.861023E-8],"split_indices":[0],"split_type":[0],"sum_hessian":[9E0],"tree_param":{"num_deleted":"0","num_feature":"3","num_nodes":"1","size_leaf_vector":"0"}},{"base_weights":[9.536743E-8],"categories":[],"categories_nodes":[],"categories_segments":[],"categories_sizes":[],"default_left":[false],"id":97,"left_children":[-1],"loss_changes":[8.067953E-7],"parents":[2147483647],"right_children":[-1],"split_conditions":[2.861023E-8],"split_indices":[0],"split_type":[0],"sum_hessian":[9E0],"tree_param":{"num_deleted":"0","num_feature":"3","num_nodes":"1","size_leaf_vector":"0"}},{"base_weights":[9.536743E-8],"categories":[],"categories_nodes":[],"categories_segments":[],"categories_sizes":[],"default_left":[false],"id":98,"left_children":[-1],"loss_changes":[8.067953E-7],"parents":[2147483647],"right_children":[-1],"split_conditions":[2.861023E-8],"split_indices":[0],"split_type":[0],"sum_hessian":[9E0],"tree_param":{"num_deleted":"0","num_feature":"3","num_nodes":"1","size_leaf_vector":"0"}},{"base_weights":[9.536743E-8],"categories":[],"categories_nodes":[],"categories_segments":[],"categories_sizes":[],"default_left":[false],"id":99,"left_children":[-1],"loss_changes":[8.067953E-7],"parents":[2147483647],"right_children":[-1],"split_conditions":[2.861023E-8],"split_indices":[0],"split_type":[0],"sum_hessian":[9E0],"tree_param":{"num_deleted":"0","num_feature":"3","num_nodes":"1","size_leaf_vector":"0"}}]},"name":"gbtree"},"learner_model_param":{"base_score":"5E-1","num_class":"0","num_feature":"3"},"objective":{"name":"reg:squarederror","reg_loss_param":{"scale_pos_weight":"1"}}},"version":[1,5,0]}