{"learner":{"attributes":{"best_iteration":"99","best_ntree_limit":"100","scikit_learn":"{\"n_estimators\": 100, \"objective\": \"reg:squarederror\", \"max_depth\": null, \"learning_rate\": null, \"verbosity\": null, \"booster\": null, \"tree_method\": null, \"gamma\": null, \"min_child_weight\": null, \"max_delta_step\": null, \"subsample\": null, \"colsample_bytree\": null, \"colsample_bylevel\": null, \"colsample_bynode\": null, \"reg_alpha\": null, \"reg_lambda\": null, \"scale_pos_weight\": null, \"base_score\": null, \"missing\": NaN, \"num_parallel_tree\": null, \"random_state\": null, \"n_jobs\": null, \"monotone_constraints\": null, \"interaction_constraints\": null, \"importance_type\": null, \"gpu_id\": null, \"validate_parameters\": null, \"predictor\": null, \"enable_categorical\": false, \"_estimator_type\": \"regressor\"}"},"feature_names":["Lending interest rate (%)","Unemployment","GDP Growth"],"feature_types":["float","float","float"],"gradient_booster":{"model":{"gbtree_model_param":{"num_trees":"100","size_leaf_vector":"0"},"tree_info":[0,0,0,0,0,0,0,0,0,0,0,0,0,0,0,0,0,0,0,0,0,0,0,0,0,0,0,0,0,0,0,0,0,0,0,0,0,0,0,0,0,0,0,0,0,0,0,0,0,0,0,0,0,0,0,0,0,0,0,0,0,0,0,0,0,0,0,0,0,0,0,0,0,0,0,0,0,0,0,0,0,0,0,0,0,0,0,0,0,0,0,0,0,0,0,0,0,0,0,0],"trees":[{"base_weights":[2.7825255E0,1.0321071E0,6.5227995E0,-4.115977E-1,1.5819417E0,9.60175E0,1.8244922E-1,8.2815945E-2,-7.002125E-1],"categories":[],"categories_nodes":[],"categories_segments":[],"categories_sizes":[],"default_left":[true,true,true,true,false,false,false,false,false],"id":0,"left_children":[1,3,5,7,-1,-1,-1,-1,-1],"loss_changes":[5.8738213E1,7.0015135E0,5.681305E1,4.8607403E-1,0E0,0E0,0E0,0E0,0E0],"parents":[2147483647,0,0,1,1,2,2,3,3],"right_children":[2,4,6,8,-1,-1,-1,-1,-1],"split_conditions":[1.3864584E1,4.840513E0,1.646875E1,4.5742292E0,4.7458252E-1,2.880525E0,5.473477E-2,2.4844784E-2,-2.1006376E-1],"split_indices":[0,0,0,0,0,0,0,0,0],"split_type":[0,0,0,0,0,0,0,0,0],"sum_hessian":[9E0,7E0,2E0,2E0,5E0,1E0,1E0,1E0,1E0],"tree_param":{"num_deleted":"0","num_feature":"3","num_nodes":"9","size_leaf_vector":"0"}},{"base_weights":[2.2702303E0,7.586454E-1,5.5443797E0,-3.4985805E-1,1.1864562E0,8.161488E0,1.5508184E-1,7.039356E-2,-5.9518063E-1,5.475681E-1,1.6428218E0],"categories":[],"categories_nodes":[],"categories_segments":[],"categories_sizes":[],"default_left":[true,true,true,true,true,false,false,false,false,false,false],"id":1,"left_children":[1,3,5,7,9,-1,-1,-1,-1,-1,-1],"loss_changes":[4.5285324E1,4.2089295E0,4.1047417E1,3.511885E-1,8.498421E-1,0E0,0E0,0E0,0E0,0E0,0E0],"parents":[2147483647,0,0,1,1,2,2,3,3,4,4],"right_children":[2,4,6,8,10,-1,-1,-1,-1,-1,-1],"split_conditions":[1.3864584E1,4.840513E0,1.646875E1,4.5742292E0,5.849022E0,2.4484463E0,4.6524554E-2,2.1118069E-2,-1.7855419E-1,1.6427043E-1,4.9284655E-1],"split_indices":[0,0,0,0,2,0,0,0,0,0,0],"split_type":[0,0,0,0,0,0,0,0,0,0,0],"sum_hessian":[9E0,7E0,2E0,2E0,5E0,1E0,1E0,1E0,1E0,3E0,2E0],"tree_param":{"num_deleted":"0","num_feature":"3","num_nodes":"11","size_leaf_vector":"0"}},{"base_weights":[1.8886263E0,5.935119E-1,4.712723E0,-2.9737929E-1,9.400388E-1,6.9372644E0,1.3181955E-1,5.983454E-2,-5.059035E-1,4.2436525E-1,1.3142573E0],"categories":[],"categories_nodes":[],"categories_segments":[],"categories_sizes":[],"default_left":[true,true,true,true,true,false,false,false,false,false,false],"id":2,"left_children":[1,3,5,7,9,-1,-1,-1,-1,-1,-1],"loss_changes":[3.3778225E1,2.74929E0,2.9656761E1,2.5373366E-1,6.0012245E-1,0E0,0E0,0E0,0E0,0E0,0E0],"parents":[2147483647,0,0,1,1,2,2,3,3,4,4],"right_children":[2,4,6,8,10,-1,-1,-1,-1,-1,-1],"split_conditions":[1.3864584E1,4.840513E0,1.646875E1,4.5742292E0,5.849022E0,2.0811794E0,3.9545864E-2,1.7950363E-2,-1.5177105E-1,1.2730958E-1,3.942772E-1],"split_indices":[0,0,0,0,2,0,0,0,0,0,0],"split_type":[0,0,0,0,0,0,0,0,0,0,0],"sum_hessian":[9E0,7E0,2E0,2E0,5E0,1E0,1E0,1E0,1E0,3E0,2E0],"tree_param":{"num_deleted":"0","num_feature":"3","num_nodes":"11","size_leaf_vector":"0"}},{"base_weights":[1.5728875E0,4.6392906E-1,4.0058146E0,-2.5277242E-1,7.449583E-1,5.896675E0,1.120466E-1,5.0859362E-2,-4.3001798E-1,3.2888308E-1,1.0514058E0],"categories":[],"categories_nodes":[],"categories_segments":[],"categories_sizes":[],"default_left":[true,true,true,true,true,false,false,false,false,false,false],"id":3,"left_children":[1,3,5,7,9,-1,-1,-1,-1,-1,-1],"loss_changes":[2.5121735E1,1.7996173E0,2.1427017E1,1.8332262E-1,4.1924167E-1,0E0,0E0,0E0,0E0,0E0,0E0],"parents":[2147483647,0,0,1,1,2,2,3,3,4,4],"right_children":[2,4,6,8,10,-1,-1,-1,-1,-1,-1],"split_conditions":[1.3864584E1,4.840513E0,1.646875E1,4.5742292E0,5.849022E0,1.7690026E0,3.361398E-2,1.5257809E-2,-1.290054E-1,9.866493E-2,3.1542176E-1],"split_indices":[0,0,0,0,2,0,0,0,0,0,0],"split_type":[0,0,0,0,0,0,0,0,0,0,0],"sum_hessian":[9E0,7E0,2E0,2E0,5E0,1E0,1E0,1E0,1E0,3E0,2E0],"tree_param":{"num_deleted":"0","num_feature":"3","num_nodes":"11","size_leaf_vector":"0"}},{"base_weights":[1.3113168E0,3.6229277E-1,3.4049423E0,-2.1485656E-1,5.904853E-1,5.0121737E0,9.523961E-2,4.3230444E-2,-3.655153E-1,2.5488442E-1,8.411247E-1],"categories":[],"categories_nodes":[],"categories_segments":[],"categories_sizes":[],"default_left":[true,true,true,true,true,false,false,false,false,false,false],"id":4,"left_children":[1,3,5,7,9,-1,-1,-1,-1,-1,-1],"loss_changes":[1.8635426E1,1.1804788E0,1.5481018E1,1.3245057E-1,2.9029942E-1,0E0,0E0,0E0,0E0,0E0,0E0],"parents":[2147483647,0,0,1,1,2,2,3,3,4,4],"right_children":[2,4,6,8,10,-1,-1,-1,-1,-1,-1],"split_conditions":[1.3864584E1,4.840513E0,1.646875E1,4.5742292E0,5.849022E0,1.5036522E0,2.8571883E-2,1.2969133E-2,-1.0965459E-1,7.646533E-2,2.5233743E-1],"split_indices":[0,0,0,0,2,0,0,0,0,0,0],"split_type":[0,0,0,0,0,0,0,0,0,0,0],"sum_hessian":[9E0,7E0,2E0,2E0,5E0,1E0,1E0,1E0,1E0,3E0,2E0],"tree_param":{"num_deleted":"0","num_feature":"3","num_nodes":"11","size_leaf_vector":"0"}},{"base_weights":[1.0943558E0,2.8261957E-1,2.8942008E0,-1.8262808E-1,4.6814013E-1,4.2603474E0,8.095366E-2,3.6745876E-2,-3.10688E-1,1.975354E-1,6.728997E-1],"categories":[],"categories_nodes":[],"categories_segments":[],"categories_sizes":[],"default_left":[true,true,true,true,true,false,false,false,false,false,false],"id":5,"left_children":[1,3,5,7,9,-1,-1,-1,-1,-1,-1],"loss_changes":[1.3792035E1,7.759995E-1,1.1185036E1,9.569553E-2,1.9953203E-1,0E0,0E0,0E0,0E0,0E0,0E0],"parents":[2147483647,0,0,1,1,2,2,3,3,4,4],"right_children":[2,4,6,8,10,-1,-1,-1,-1,-1,-1],"split_conditions":[1.3864584E1,4.840513E0,1.646875E1,4.5742292E0,5.849022E0,1.2781043E0,2.4286099E-2,1.1023764E-2,-9.32064E-2,5.926062E-2,2.0186992E-1],"split_indices":[0,0,0,0,2,0,0,0,0,0,0],"split_type":[0,0,0,0,0,0,0,0,0,0,0],"sum_hessian":[9E0,7E0,2E0,2E0,5E0,1E0,1E0,1E0,1E0,3E0,2E0],"tree_param":{"num_deleted":"0","num_feature":"3","num_nodes":"11","size_leaf_vector":"0"}},{"base_weights":[9.1418284E-1,7.574602E-2,2.1529016E0,-1.5523386E-1,1.9918475E-1,3.621295E0,4.5633882E-1,3.1233996E-2,-2.640848E-1,2.5938416E-1,7.259043E-2,6.156976E-1,6.881061E-2],"categories":[],"categories_nodes":[],"categories_segments":[],"categories_sizes":[],"default_left":[true,true,true,true,true,false,true,false,false,false,false,false,false],"id":6,"left_children":[1,3,5,7,9,-1,11,-1,-1,-1,-1,-1,-1],"loss_changes":[1.0222802E1,2.3050325E-1,8.312347E0,6.914002E-2,1.9275695E-2,0E0,1.429016E-1,0E0,0E0,0E0,0E0,0E0,0E0],"parents":[2147483647,0,0,1,1,2,2,3,3,4,4,6,6],"right_children":[2,4,6,8,10,-1,12,-1,-1,-1,-1,-1,-1],"split_conditions":[9.708333E0,4.840513E0,1.9150001E0,4.5742292E0,6.2290735E0,1.0863886E0,1.41875E1,9.370199E-3,-7.9225436E-2,7.781525E-2,2.177713E-2,1.847093E-1,2.0643184E-2],"split_indices":[0,0,1,0,0,0,0,0,0,0,0,0,0],"split_type":[0,0,0,0,0,0,0,0,0,0,0,0,0],"sum_hessian":[9E0,6E0,3E0,2E0,4E0,1E0,2E0,1E0,1E0,2E0,2E0,1E0,1E0],"tree_param":{"num_deleted":"0","num_feature":"3","num_nodes":"13","size_leaf_vector":"0"}},{"base_weights":[7.720758E-1,5.7270356E-2,1.8299663E0,-1.3194878E-1,1.5934777E-1,3.0781007E0,3.8788798E-1,2.6548892E-2,-2.2447208E-1,2.075073E-1,5.807233E-2,5.2334297E-1,5.8489025E-2],"categories":[],"categories_nodes":[],"categories_segments":[],"categories_sizes":[],"default_left":[true,true,true,true,true,false,true,false,false,false,false,false,false],"id":7,"left_children":[1,3,5,7,9,-1,11,-1,-1,-1,-1,-1,-1],"loss_changes":[7.457057E0,1.5623075E-1,6.0056725E0,4.9953666E-2,1.2336448E-2,0E0,1.0324642E-1,0E0,0E0,0E0,0E0,0E0,0E0],"parents":[2147483647,0,0,1,1,2,2,3,3,4,4,6,6],"right_children":[2,4,6,8,10,-1,12,-1,-1,-1,-1,-1,-1],"split_conditions":[9.708333E0,4.840513E0,1.9150001E0,4.5742292E0,6.2290735E0,9.2343026E-1,1.41875E1,7.964668E-3,-6.7341626E-2,6.225219E-2,1.74217E-2,1.570029E-1,1.7546708E-2],"split_indices":[0,0,1,0,0,0,0,0,0,0,0,0,0],"split_type":[0,0,0,0,0,0,0,0,0,0,0,0,0],"sum_hessian":[9E0,6E0,3E0,2E0,4E0,1E0,2E0,1E0,1E0,2E0,2E0,1E0,1E0],"tree_param":{"num_deleted":"0","num_feature":"3","num_nodes":"13","size_leaf_vector":"0"}},{"base_weights":[6.522807E-1,4.2988796E-2,1.5554713E0,-1.1215647E-1,1.274782E-1,2.6163855E0,3.297048E-1,2.2566557E-2,-1.9080126E-1,1.660058E-1,4.6457846E-2,4.448415E-1,4.9715668E-2],"categories":[],"categories_nodes":[],"categories_segments":[],"categories_sizes":[],"default_left":[true,true,true,true,true,false,true,false,false,false,false,false,false],"id":8,"left_children":[1,3,5,7,9,-1,11,-1,-1,-1,-1,-1,-1],"loss_changes":[5.4362E0,1.0605441E-1,4.339097E0,3.609152E-2,7.895336E-3,0E0,7.459548E-2,0E0,0E0,0E0,0E0,0E0,0E0],"parents":[2147483647,0,0,1,1,2,2,3,3,4,4,6,6],"right_children":[2,4,6,8,10,-1,12,-1,-1,-1,-1,-1,-1],"split_conditions":[9.708333E0,4.840513E0,1.9150001E0,4.5742292E0,6.2290735E0,7.849157E-1,1.41875E1,6.7699673E-3,-5.724038E-2,4.9801745E-2,1.3937354E-2,1.3345246E-1,1.4914701E-2],"split_indices":[0,0,1,0,0,0,0,0,0,0,0,0,0],"split_type":[0,0,0,0,0,0,0,0,0,0,0,0,0],"sum_hessian":[9E0,6E0,3E0,2E0,4E0,1E0,2E0,1E0,1E0,2E0,2E0,1E0,1E0],"tree_param":{"num_deleted":"0","num_feature":"3","num_nodes":"13","size_leaf_vector":"0"}},{"base_weights":[5.512516E-1,3.1987675E-2,1.3221506E0,-9.5333E-2,1.0198255E-1,2.2239275E0,2.802491E-1,1.918158E-2,-1.6218108E-1,1.3280463E-1,3.716628E-2,3.781153E-1,4.2258322E-2],"categories":[],"categories_nodes":[],"categories_segments":[],"categories_sizes":[],"default_left":[true,true,true,true,true,false,true,false,false,false,false,false,false],"id":9,"left_children":[1,3,5,7,9,-1,11,-1,-1,-1,-1,-1,-1],"loss_changes":[3.9607074E0,7.210486E-2,3.1349978E0,2.607613E-2,5.05301E-3,0E0,5.389525E-2,0E0,0E0,0E0,0E0,0E0,0E0],"parents":[2147483647,0,0,1,1,2,2,3,3,4,4,6,6],"right_children":[2,4,6,8,10,-1,12,-1,-1,-1,-1,-1,-1],"split_conditions":[9.708333E0,4.840513E0,1.9150001E0,4.5742292E0,6.2290735E0,6.671783E-1,1.41875E1,5.754474E-3,-4.8654325E-2,3.984139E-2,1.1149884E-2,1.1343459E-1,1.2677497E-2],"split_indices":[0,0,1,0,0,0,0,0,0,0,0,0,0],"split_type":[0,0,0,0,0,0,0,0,0,0,0,0,0],"sum_hessian":[9E0,6E0,3E0,2E0,4E0,1E0,2E0,1E0,1E0,2E0,2E0,1E0,1E0],"tree_param":{"num_deleted":"0","num_feature":"3","num_nodes":"13","size_leaf_vector":"0"}},{"base_weights":[4.660143E-1,2.3547282E-2,1.123828E0,-8.103305E-2,8.1586026E-2,1.8903384E0,2.3821174E-1,1.6304344E-2,-1.3785392E-1,9.520012E-2,1.3564825E-2,3.2139802E-1,3.5919577E-2],"categories":[],"categories_nodes":[],"categories_segments":[],"categories_sizes":[],"default_left":[true,true,true,true,true,false,true,false,false,false,false,false,false],"id":10,"left_children":[1,3,5,7,9,-1,11,-1,-1,-1,-1,-1,-1],"loss_changes":[2.8841457E0,4.9099147E-2,2.2650356E0,1.8840004E-2,3.3388622E-3,0E0,3.8939327E-2,0E0,0E0,0E0,0E0,0E0,0E0],"parents":[2147483647,0,0,1,1,2,2,3,3,4,4,6,6],"right_children":[2,4,6,8,10,-1,12,-1,-1,-1,-1,-1,-1],"split_conditions":[9.708333E0,4.840513E0,1.9150001E0,4.5742292E0,7.5520835E0,5.6710154E-1,1.41875E1,4.8913034E-3,-4.1356176E-2,2.8560037E-2,4.0694475E-3,9.641941E-2,1.0775873E-2],"split_indices":[0,0,1,0,0,0,0,0,0,0,0,0,0],"split_type":[0,0,0,0,0,0,0,0,0,0,0,0,0],"sum_hessian":[9E0,6E0,3E0,2E0,4E0,1E0,2E0,1E0,1E0,3E0,1E0,1E0,1E0],"tree_param":{"num_deleted":"0","num_feature":"3","num_nodes":"13","size_leaf_vector":"0"}},{"base_weights":[3.932562E-1,1.5935209E-2,9.5525384E-1,-6.887808E-2,6.363614E-2,1.6067877E0,2.0248E-1,1.3858706E-2,-1.1717582E-1,8.7203704E-2,1.8856525E-2,2.7318835E-1,3.0531645E-2],"categories":[],"categories_nodes":[],"categories_segments":[],"categories_sizes":[],"default_left":[true,true,true,true,true,false,true,false,false,false,false,false,false],"id":11,"left_children":[1,3,5,7,9,-1,11,-1,-1,-1,-1,-1,-1],"loss_changes":[2.1053128E0,3.270284E-2,1.636488E0,1.3611904E-2,3.6323722E-3,0E0,2.813366E-2,0E0,0E0,0E0,0E0,0E0,0E0],"parents":[2147483647,0,0,1,1,2,2,3,3,4,4,6,6],"right_children":[2,4,6,8,10,-1,12,-1,-1,-1,-1,-1,-1],"split_conditions":[9.708333E0,4.840513E0,1.9150001E0,4.5742292E0,6.2290735E0,4.8203632E-1,1.41875E1,4.157612E-3,-3.515275E-2,2.6161112E-2,5.6569576E-3,8.1956506E-2,9.159494E-3],"split_indices":[0,0,1,0,0,0,0,0,0,0,0,0,0],"split_type":[0,0,0,0,0,0,0,0,0,0,0,0,0],"sum_hessian":[9E0,6E0,3E0,2E0,4E0,1E0,2E0,1E0,1E0,2E0,2E0,1E0,1E0],"tree_param":{"num_deleted":"0","num_feature":"3","num_nodes":"13","size_leaf_vector":"0"}},{"base_weights":[3.326768E-1,1.12722E-2,8.1196564E-1,-5.8546364E-2,5.09089E-2,1.3657694E0,1.7210795E-1,1.1779904E-2,-9.959945E-2,6.9762945E-2,1.508522E-2,2.3221004E-1,2.5951892E-2],"categories":[],"categories_nodes":[],"categories_segments":[],"categories_sizes":[],"default_left":[true,true,true,true,true,false,true,false,false,false,false,false,false],"id":12,"left_children":[1,3,5,7,9,-1,11,-1,-1,-1,-1,-1,-1],"loss_changes":[1.5313039E0,2.2352172E-2,1.1823626E0,9.8346025E-3,2.324718E-3,0E0,2.0326555E-2,0E0,0E0,0E0,0E0,0E0,0E0],"parents":[2147483647,0,0,1,1,2,2,3,3,4,4,6,6],"right_children":[2,4,6,8,10,-1,12,-1,-1,-1,-1,-1,-1],"split_conditions":[9.708333E0,4.840513E0,1.9150001E0,4.5742292E0,6.2290735E0,4.0973082E-1,1.41875E1,3.5339715E-3,-2.9879836E-2,2.0928884E-2,4.5255665E-3,6.966302E-2,7.785568E-3],"split_indices":[0,0,1,0,0,0,0,0,0,0,0,0,0],"split_type":[0,0,0,0,0,0,0,0,0,0,0,0,0],"sum_hessian":[9E0,6E0,3E0,2E0,4E0,1E0,2E0,1E0,1E0,2E0,2E0,1E0,1E0],"tree_param":{"num_deleted":"0","num_feature":"3","num_nodes":"13","size_leaf_vector":"0"}},{"base_weights":[2.8150254E-1,7.763207E-3,6.9017076E-1,-4.9764413E-2,4.072714E-2,1.1609039E0,1.4629175E-1,1.0012925E-2,-8.465955E-2,5.5810373E-2,1.20681925E-2,1.9737852E-1,2.2059113E-2],"categories":[],"categories_nodes":[],"categories_segments":[],"categories_sizes":[],"default_left":[true,true,true,true,true,false,true,false,false,false,false,false,false],"id":13,"left_children":[1,3,5,7,9,-1,11,-1,-1,-1,-1,-1,-1],"loss_changes":[1.1133277E0,1.5301119E-2,8.5425687E-1,7.105504E-3,1.4878167E-3,0E0,1.4685936E-2,0E0,0E0,0E0,0E0,0E0,0E0],"parents":[2147483647,0,0,1,1,2,2,3,3,4,4,6,6],"right_children":[2,4,6,8,10,-1,12,-1,-1,-1,-1,-1,-1],"split_conditions":[9.708333E0,4.840513E0,1.9150001E0,4.5742292E0,6.2290735E0,3.482712E-1,1.41875E1,3.0038776E-3,-2.5397865E-2,1.6743112E-2,3.6204578E-3,5.9213556E-2,6.617734E-3],"split_indices":[0,0,1,0,0,0,0,0,0,0,0,0,0],"split_type":[0,0,0,0,0,0,0,0,0,0,0,0,0],"sum_hessian":[9E0,6E0,3E0,2E0,4E0,1E0,2E0,1E0,1E0,2E0,2E0,1E0,1E0],"tree_param":{"num_deleted":"0","num_feature":"3","num_nodes":"13","size_leaf_vector":"0"}},{"base_weights":[2.3825905E-1,5.1441616E-3,5.8664536E-1,-4.2299766E-2,3.2581687E-2,9.867687E-1,1.2434796E-1,8.510977E-3,-7.196063E-2,4.464829E-2,9.654522E-3,1.677717E-1,1.875025E-2],"categories":[],"categories_nodes":[],"categories_segments":[],"categories_sizes":[],"default_left":[true,true,true,true,true,false,true,false,false,false,false,false,false],"id":14,"left_children":[1,3,5,7,9,-1,11,-1,-1,-1,-1,-1,-1],"loss_changes":[8.091225E-1,1.0490406E-2,6.172012E-1,5.1337266E-3,9.5220655E-4,0E0,1.061058E-2,0E0,0E0,0E0,0E0,0E0,0E0],"parents":[2147483647,0,0,1,1,2,2,3,3,4,4,6,6],"right_children":[2,4,6,8,10,-1,12,-1,-1,-1,-1,-1,-1],"split_conditions":[9.708333E0,4.840513E0,1.9150001E0,4.5742292E0,6.2290735E0,2.9603064E-1,1.41875E1,2.5532932E-3,-2.158819E-2,1.3394487E-2,2.8963566E-3,5.033151E-2,5.625075E-3],"split_indices":[0,0,1,0,0,0,0,0,0,0,0,0,0],"split_type":[0,0,0,0,0,0,0,0,0,0,0,0,0],"sum_hessian":[9E0,6E0,3E0,2E0,4E0,1E0,2E0,1E0,1E0,2E0,2E0,1E0,1E0],"tree_param":{"num_deleted":"0","num_feature":"3","num_nodes":"13","size_leaf_vector":"0"}},{"base_weights":[2.017057E-1,3.2089096E-3,4.9864864E-1,-3.5954792E-2,2.606535E-2,8.387537E-1,1.0569575E-1,7.234335E-3,-6.1166525E-2,3.57186E-2,7.7236495E-3,1.426059E-1,1.5937716E-2],"categories":[],"categories_nodes":[],"categories_segments":[],"categories_sizes":[],"default_left":[true,true,true,true,true,false,true,false,false,false,false,false,false],"id":15,"left_children":[1,3,5,7,9,-1,11,-1,-1,-1,-1,-1,-1],"loss_changes":[5.8782214E-1,7.203174E-3,4.4592834E-1,3.7091174E-3,6.094072E-4,0E0,7.666137E-3,0E0,0E0,0E0,0E0,0E0,0E0],"parents":[2147483647,0,0,1,1,2,2,3,3,4,4,6,6],"right_children":[2,4,6,8,10,-1,12,-1,-1,-1,-1,-1,-1],"split_conditions":[9.708333E0,4.840513E0,1.9150001E0,4.5742292E0,6.2290735E0,2.5162613E-1,1.41875E1,2.1703006E-3,-1.8349959E-2,1.0715581E-2,2.317095E-3,4.278177E-2,4.781315E-3],"split_indices":[0,0,1,0,0,0,0,0,0,0,0,0,0],"split_type":[0,0,0,0,0,0,0,0,0,0,0,0,0],"sum_hessian":[9E0,6E0,3E0,2E0,4E0,1E0,2E0,1E0,1E0,2E0,2E0,1E0,1E0],"tree_param":{"num_deleted":"0","num_feature":"3","num_nodes":"13","size_leaf_vector":"0"}},{"base_weights":[1.7079812E-1,1.7966798E-3,4.2385113E-1,-3.0561587E-2,2.0852303E-2,7.129402E-1,8.9841366E-2,6.149173E-3,-5.1991552E-2,2.8574904E-2,6.1789355E-3,1.21214986E-1,1.3547063E-2],"categories":[],"categories_nodes":[],"categories_segments":[],"categories_sizes":[],"default_left":[true,true,true,true,true,false,true,false,false,false,false,false,false],"id":16,"left_children":[1,3,5,7,9,-1,11,-1,-1,-1,-1,-1,-1],"loss_changes":[4.2690173E-1,4.9535283E-3,3.2218271E-1,2.679836E-3,3.900202E-4,0E0,5.5387784E-3,0E0,0E0,0E0,0E0,0E0,0E0],"parents":[2147483647,0,0,1,1,2,2,3,3,4,4,6,6],"right_children":[2,4,6,8,10,-1,12,-1,-1,-1,-1,-1,-1],"split_conditions":[9.708333E0,4.840513E0,1.9150001E0,4.5742292E0,6.2290735E0,2.1388207E-1,1.41875E1,1.8447519E-3,-1.5597466E-2,8.572471E-3,1.8536807E-3,3.6364496E-2,4.064119E-3],"split_indices":[0,0,1,0,0,0,0,0,0,0,0,0,0],"split_type":[0,0,0,0,0,0,0,0,0,0,0,0,0],"sum_hessian":[9E0,6E0,3E0,2E0,4E0,1E0,2E0,1E0,1E0,2E0,2E0,1E0,1E0],"tree_param":{"num_deleted":"0","num_feature":"3","num_nodes":"13","size_leaf_vector":"0"}},{"base_weights":[1.4465705E-1,7.824302E-4,3.6027336E-1,-2.5977353E-2,1.6681815E-2,6.05999E-1,7.6365136E-2,5.226791E-3,-4.419282E-2,2.030474E-2,1.0950565E-3,1.0303271E-1,1.15149915E-2],"categories":[],"categories_nodes":[],"categories_segments":[],"categories_sizes":[],"default_left":[true,true,true,true,true,false,true,false,false,false,false,false,false],"id":17,"left_children":[1,3,5,7,9,-1,11,-1,-1,-1,-1,-1,-1],"loss_changes":[3.099352E-1,3.411598E-3,2.3277694E-1,1.9361807E-3,2.601134E-4,0E0,4.0017683E-3,0E0,0E0,0E0,0E0,0E0,0E0],"parents":[2147483647,0,0,1,1,2,2,3,3,4,4,6,6],"right_children":[2,4,6,8,10,-1,12,-1,-1,-1,-1,-1,-1],"split_conditions":[9.708333E0,4.840513E0,1.9150001E0,4.5742292E0,7.5520835E0,1.8179971E-1,1.41875E1,1.5680373E-3,-1.3257847E-2,6.091422E-3,3.2851697E-4,3.0909814E-2,3.4544975E-3],"split_indices":[0,0,1,0,0,0,0,0,0,0,0,0,0],"split_type":[0,0,0,0,0,0,0,0,0,0,0,0,0],"sum_hessian":[9E0,6E0,3E0,2E0,4E0,1E0,2E0,1E0,1E0,3E0,1E0,1E0,1E0],"tree_param":{"num_deleted":"0","num_feature":"3","num_nodes":"13","size_leaf_vector":"0"}},{"base_weights":[1.2234942E-1,-2.0514216E-4,3.0623254E-1,-2.208074E-2,1.2961244E-2,5.150995E-1,6.4910375E-2,4.442781E-3,-3.756389E-2,1.8798947E-2,2.803127E-3,8.757782E-2,9.787738E-3],"categories":[],"categories_nodes":[],"categories_segments":[],"categories_sizes":[],"default_left":[true,true,true,true,true,false,true,false,false,false,false,false,false],"id":18,"left_children":[1,3,5,7,9,-1,11,-1,-1,-1,-1,-1,-1],"loss_changes":[2.2541998E-1,2.3023519E-3,1.681816E-1,1.3988913E-3,2.4380459E-4,0E0,2.8912798E-3,0E0,0E0,0E0,0E0,0E0,0E0],"parents":[2147483647,0,0,1,1,2,2,3,3,4,4,6,6],"right_children":[2,4,6,8,10,-1,12,-1,-1,-1,-1,-1,-1],"split_conditions":[9.708333E0,4.840513E0,1.9150001E0,4.5742292E0,6.2290735E0,1.5452987E-1,1.41875E1,1.3328344E-3,-1.1269167E-2,5.6396844E-3,8.409381E-4,2.6273347E-2,2.9363215E-3],"split_indices":[0,0,1,0,0,0,0,0,0,0,0,0,0],"split_type":[0,0,0,0,0,0,0,0,0,0,0,0,0],"sum_hessian":[9E0,6E0,3E0,2E0,4E0,1E0,2E0,1E0,1E0,2E0,2E0,1E0,1E0],"tree_param":{"num_deleted":"0","num_feature":"3","num_nodes":"13","size_leaf_vector":"0"}},{"base_weights":[1.0367301E-1,-6.372758E-4,2.6029778E-1,-1.8768629E-2,1.0368991E-2,4.3783474E-1,5.5173855E-2,3.7763715E-3,-3.1929314E-2,1.5039126E-2,2.2425253E-3,7.4441195E-2,8.3195865E-3,2.8534532E-3,5.1033497E-4],"categories":[],"categories_nodes":[],"categories_segments":[],"categories_sizes":[],"default_left":[true,true,true,true,true,false,true,false,false,false,true,false,false,false,false],"id":19,"left_children":[1,3,5,7,9,-1,11,-1,-1,-1,13,-1,-1,-1,-1],"loss_changes":[1.6354159E-1,1.5915213E-3,1.2151131E-1,1.0106999E-3,1.5603285E-4,0E0,2.088951E-3,0E0,0E0,0E0,1.718513E-6,0E0,0E0,0E0,0E0],"parents":[2147483647,0,0,1,1,2,2,3,3,4,4,6,6,10,10],"right_children":[2,4,6,8,10,-1,12,-1,-1,-1,14,-1,-1,-1,-1],"split_conditions":[9.708333E0,4.840513E0,1.9150001E0,4.5742292E0,6.2290735E0,1.3135043E-1,1.41875E1,1.1329115E-3,-9.578794E-3,4.511738E-3,7.5520835E0,2.233236E-2,2.495876E-3,8.56036E-4,1.531005E-4],"split_indices":[0,0,1,0,0,0,0,0,0,0,0,0,0,0,0],"split_type":[0,0,0,0,0,0,0,0,0,0,0,0,0,0,0],"sum_hessian":[9E0,6E0,3E0,2E0,4E0,1E0,2E0,1E0,1E0,2E0,2E0,1E0,1E0,1E0,1E0],"tree_param":{"num_deleted":"0","num_feature":"3","num_nodes":"15","size_leaf_vector":"0"}},{"base_weights":[8.789655E-2,-8.639523E-4,2.2125329E-1,-1.5953323E-2,8.36246E-3,3.7215996E-1,4.689775E-2,3.2099187E-3,-2.7139902E-2,1.2031277E-2,1.9061565E-3,6.327498E-2,7.071644E-3,2.4254322E-3,4.338026E-4],"categories":[],"categories_nodes":[],"categories_segments":[],"categories_sizes":[],"default_left":[true,true,true,true,true,false,true,false,false,false,true,false,false,false,false],"id":20,"left_children":[1,3,5,7,9,-1,11,-1,-1,-1,13,-1,-1,-1,-1],"loss_changes":[1.1855927E-1,1.1079542E-3,8.779219E-2,7.3023024E-4,9.5501455E-5,0E0,1.5092664E-3,0E0,0E0,0E0,1.2415139E-6,0E0,0E0,0E0,0E0],"parents":[2147483647,0,0,1,1,2,2,3,3,4,4,6,6,10,10],"right_children":[2,4,6,8,10,-1,12,-1,-1,-1,14,-1,-1,-1,-1],"split_conditions":[9.708333E0,4.840513E0,1.9150001E0,4.5742292E0,6.2290735E0,1.1164799E-1,1.41875E1,9.6297567E-4,-8.141971E-3,3.6093832E-3,7.5520835E0,1.8982494E-2,2.1214932E-3,7.276297E-4,1.3014079E-4],"split_indices":[0,0,1,0,0,0,0,0,0,0,0,0,0,0,0],"split_type":[0,0,0,0,0,0,0,0,0,0,0,0,0,0,0],"sum_hessian":[9E0,6E0,3E0,2E0,4E0,1E0,2E0,1E0,1E0,2E0,2E0,1E0,1E0,1E0,1E0],"tree_param":{"num_deleted":"0","num_feature":"3","num_nodes":"15","size_leaf_vector":"0"}},{"base_weights":[7.453154E-2,-9.921874E-4,1.8806517E-1,-1.3560315E-2,6.7471266E-3,3.1633568E-1,3.986311E-2,2.7284324E-3,-2.3068905E-2,9.624998E-3,1.6202132E-3,5.3783774E-2,6.01089E-3],"categories":[],"categories_nodes":[],"categories_segments":[],"categories_sizes":[],"default_left":[true,true,true,true,true,false,true,false,false,false,false,false,false],"id":21,"left_children":[1,3,5,7,9,-1,11,-1,-1,-1,-1,-1,-1],"loss_changes":[8.593142E-2,7.723739E-4,6.34297E-2,5.2759104E-4,5.817841E-5,0E0,1.0904483E-3,0E0,0E0,0E0,8.970619E-7,0E0,0E0],"parents":[2147483647,0,0,1,1,2,2,3,3,4,4,6,6],"right_children":[2,4,6,8,10,-1,12,-1,-1,-1,-1,-1,-1],"split_conditions":[9.708333E0,4.840513E0,1.9150001E0,4.5742292E0,6.2290735E0,9.4900705E-2,1.41875E1,8.1852975E-4,-6.9206716E-3,2.8874995E-3,4.8606397E-4,1.6135134E-2,1.803267E-3],"split_indices":[0,0,1,0,0,0,0,0,0,0,0,0,0],"split_type":[0,0,0,0,0,0,0,0,0,0,0,0,0],"sum_hessian":[9E0,6E0,3E0,2E0,4E0,1E0,2E0,1E0,1E0,2E0,2E0,1E0,1E0],"tree_param":{"num_deleted":"0","num_feature":"3","num_nodes":"13","size_leaf_vector":"0"}},{"base_weights":[6.318319E-2,-1.0843107E-3,1.5985551E-1,-1.1526267E-2,5.397725E-3,2.688856E-1,3.3883613E-2,2.3191571E-3,-1.9608557E-2,7.700006E-3,1.2962023E-3,4.5716166E-2,5.1092505E-3,1.8185973E-3,1.257062E-4],"categories":[],"categories_nodes":[],"categories_segments":[],"categories_sizes":[],"default_left":[true,true,true,true,true,false,true,false,false,false,true,false,false,false,false],"id":22,"left_children":[1,3,5,7,9,-1,11,-1,-1,-1,13,-1,-1,-1,-1],"loss_changes":[6.230222E-2,5.3601153E-4,4.5828104E-2,3.811835E-4,3.723352E-5,0E0,7.8784744E-4,0E0,0E0,0E0,1.6057752E-6,0E0,0E0,0E0,0E0],"parents":[2147483647,0,0,1,1,2,2,3,3,4,4,6,6,10,10],"right_children":[2,4,6,8,10,-1,12,-1,-1,-1,14,-1,-1,-1,-1],"split_conditions":[9.708333E0,4.840513E0,1.9150001E0,4.5742292E0,6.2290735E0,8.0665685E-2,1.41875E1,6.9574715E-4,-5.8825673E-3,2.310002E-3,7.5520835E0,1.3714851E-2,1.5327752E-3,5.4557924E-4,3.771186E-5],"split_indices":[0,0,1,0,0,0,0,0,0,0,0,0,0,0,0],"split_type":[0,0,0,0,0,0,0,0,0,0,0,0,0,0,0],"sum_hessian":[9E0,6E0,3E0,2E0,4E0,1E0,2E0,1E0,1E0,2E0,2E0,1E0,1E0,1E0,1E0],"tree_param":{"num_deleted":"0","num_feature":"3","num_nodes":"15","size_leaf_vector":"0"}},{"base_weights":[5.3590216E-2,-1.0866778E-3,1.3587722E-1,-9.797335E-3,4.357052E-3,2.2855282E-1,2.8801084E-2,1.9712746E-3,-1.6667277E-2,7.3762536E-3,1.758188E-3,3.885877E-2,4.342854E-3,2.2730033E-3,1.0687113E-4],"categories":[],"categories_nodes":[],"categories_segments":[],"categories_sizes":[],"default_left":[true,true,true,true,true,false,true,false,false,false,true,false,false,false,false],"id":23,"left_children":[1,3,5,7,9,-1,11,-1,-1,-1,13,-1,-1,-1,-1],"loss_changes":[4.5139626E-2,3.7461673E-4,3.3110812E-2,2.7540472E-4,2.6263631E-5,0E0,5.692218E-4,0E0,0E0,0E0,3.1575746E-6,0E0,0E0,0E0,0E0],"parents":[2147483647,0,0,1,1,2,2,3,3,4,4,6,6,10,10],"right_children":[2,4,6,8,10,-1,12,-1,-1,-1,14,-1,-1,-1,-1],"split_conditions":[9.708333E0,4.840513E0,1.9150001E0,4.5742292E0,5.068233E0,6.8565845E-2,1.41875E1,5.913824E-4,-5.0001834E-3,2.2128762E-3,7.5520835E0,1.1657632E-2,1.3028563E-3,6.81901E-4,3.206134E-5],"split_indices":[0,0,1,0,0,0,0,0,0,0,0,0,0,0,0],"split_type":[0,0,0,0,0,0,0,0,0,0,0,0,0,0,0],"sum_hessian":[9E0,6E0,3E0,2E0,4E0,1E0,2E0,1E0,1E0,1E0,3E0,1E0,1E0,2E0,1E0],"tree_param":{"num_deleted":"0","num_feature":"3","num_nodes":"15","size_leaf_vector":"0"}},{"base_weights":[4.551763E-2,-9.723817E-4,1.1549574E-1,-8.327742E-3,3.635311E-3,1.9427013E-1,2.44809E-2,1.675576E-3,-1.416719E-2,6.2698126E-3,1.4092326E-3,3.3029914E-2,3.6914349E-3,1.8184185E-3,9.083748E-5],"categories":[],"categories_nodes":[],"categories_segments":[],"categories_sizes":[],"default_left":[true,true,true,true,true,false,true,false,false,false,true,false,false,false,false],"id":24,"left_children":[1,3,5,7,9,-1,11,-1,-1,-1,13,-1,-1,-1,-1],"loss_changes":[3.2645136E-2,2.6751263E-4,2.3922652E-2,1.9897975E-4,2.0487409E-5,0E0,4.1126052E-4,0E0,0E0,0E0,1.9926947E-6,0E0,0E0,0E0,0E0],"parents":[2147483647,0,0,1,1,2,2,3,3,4,4,6,6,10,10],"right_children":[2,4,6,8,10,-1,12,-1,-1,-1,14,-1,-1,-1,-1],"split_conditions":[9.708333E0,4.840513E0,1.9150001E0,4.5742292E0,5.068233E0,5.828104E-2,1.41875E1,5.026728E-4,-4.250157E-3,1.8809439E-3,7.5520835E0,9.908974E-3,1.1074306E-3,5.455256E-4,2.7251244E-5],"split_indices":[0,0,1,0,0,0,0,0,0,0,0,0,0,0,0],"split_type":[0,0,0,0,0,0,0,0,0,0,0,0,0,0,0],"sum_hessian":[9E0,6E0,3E0,2E0,4E0,1E0,2E0,1E0,1E0,1E0,3E0,1E0,1E0,2E0,1E0],"tree_param":{"num_deleted":"0","num_feature":"3","num_nodes":"15","size_leaf_vector":"0"}},{"base_weights":[3.866272E-2,-8.654935E-4,9.817141E-2,-7.078568E-3,3.03545E-3,1.6512966E-1,2.0808777E-2,1.424253E-3,-1.2042105E-2,5.329311E-3,1.129657E-3,2.8075457E-2,3.1377077E-3,1.4547507E-3,7.7188015E-5],"categories":[],"categories_nodes":[],"categories_segments":[],"categories_sizes":[],"default_left":[true,true,true,true,true,false,true,false,false,false,true,false,false,false,false],"id":25,"left_children":[1,3,5,7,9,-1,11,-1,-1,-1,13,-1,-1,-1,-1],"loss_changes":[2.360769E-2,1.9114462E-4,1.7284121E-2,1.437632E-4,1.5837824E-5,0E0,2.9713742E-4,0E0,0E0,0E0,1.256315E-6,0E0,0E0,0E0,0E0],"parents":[2147483647,0,0,1,1,2,2,3,3,4,4,6,6,10,10],"right_children":[2,4,6,8,10,-1,12,-1,-1,-1,14,-1,-1,-1,-1],"split_conditions":[9.708333E0,4.840513E0,1.9150001E0,4.5742292E0,5.068233E0,4.95389E-2,1.41875E1,4.2727593E-4,-3.6126317E-3,1.5987933E-3,7.5520835E0,8.422637E-3,9.4131235E-4,4.364252E-4,2.3156406E-5],"split_indices":[0,0,1,0,0,0,0,0,0,0,0,0,0,0,0],"split_type":[0,0,0,0,0,0,0,0,0,0,0,0,0,0,0],"sum_hessian":[9E0,6E0,3E0,2E0,4E0,1E0,2E0,1E0,1E0,1E0,3E0,1E0,1E0,2E0,1E0],"tree_param":{"num_deleted":"0","num_feature":"3","num_nodes":"15","size_leaf_vector":"0"}},{"base_weights":[3.2841407E-2,-7.6686486E-4,8.3445534E-2,-6.016791E-3,2.5364638E-3,1.4035988E-1,1.768746E-2,1.2106001E-3,-1.0235786E-2,4.5298934E-3,9.05633E-4,2.386415E-2,2.6670396E-3],"categories":[],"categories_nodes":[],"categories_segments":[],"categories_sizes":[],"default_left":[true,true,true,true,true,false,true,false,false,false,false,false,false],"id":26,"left_children":[1,3,5,7,9,-1,11,-1,-1,-1,-1,-1,-1],"loss_changes":[1.7071165E-2,1.3665698E-4,1.2487702E-2,1.03868435E-4,1.2152312E-5,0E0,2.1468278E-4,0E0,0E0,0E0,7.9094707E-7,0E0,0E0],"parents":[2147483647,0,0,1,1,2,2,3,3,4,4,6,6],"right_children":[2,4,6,8,10,-1,12,-1,-1,-1,-1,-1,-1],"split_conditions":[9.708333E0,4.840513E0,1.9150001E0,4.5742292E0,5.068233E0,4.2107966E-2,1.41875E1,3.6318006E-4,-3.070736E-3,1.3589681E-3,2.716899E-4,7.159245E-3,8.001119E-4],"split_indices":[0,0,1,0,0,0,0,0,0,0,0,0,0],"split_type":[0,0,0,0,0,0,0,0,0,0,0,0,0],"sum_hessian":[9E0,6E0,3E0,2E0,4E0,1E0,2E0,1E0,1E0,1E0,3E0,1E0,1E0],"tree_param":{"num_deleted":"0","num_feature":"3","num_nodes":"13","size_leaf_vector":"0"}},{"base_weights":[2.7887959E-2,-6.906646E-4,7.092856E-2,-5.1142774E-3,2.101636E-3,1.1930561E-1,1.50343375E-2,1.0290146E-3,-8.70043E-3,3.8504004E-3,7.018447E-4,2.0284534E-2,2.2669733E-3],"categories":[],"categories_nodes":[],"categories_segments":[],"categories_sizes":[],"default_left":[true,true,true,true,true,false,true,false,false,false,false,false,false],"id":27,"left_children":[1,3,5,7,9,-1,11,-1,-1,-1,-1,-1,-1],"loss_changes":[1.2349401E-2,9.721273E-5,9.0223085E-3,7.504523E-5,9.537143E-6,0E0,1.5510898E-4,0E0,0E0,0E0,9.3603876E-7,0E0,0E0],"parents":[2147483647,0,0,1,1,2,2,3,3,4,4,6,6],"right_children":[2,4,6,8,10,-1,12,-1,-1,-1,-1,-1,-1],"split_conditions":[9.708333E0,4.840513E0,1.9150001E0,4.5742292E0,5.068233E0,3.5791684E-2,1.41875E1,3.087044E-4,-2.6101293E-3,1.1551202E-3,2.1055342E-4,6.0853604E-3,6.80092E-4],"split_indices":[0,0,1,0,0,0,0,0,0,0,0,0,0],"split_type":[0,0,0,0,0,0,0,0,0,0,0,0,0],"sum_hessian":[9E0,6E0,3E0,2E0,4E0,1E0,2E0,1E0,1E0,1E0,3E0,1E0,1E0],"tree_param":{"num_deleted":"0","num_feature":"3","num_nodes":"13","size_leaf_vector":"0"}},{"base_weights":[2.3683745E-2,-6.1712944E-4,6.028934E-2,-4.3471255E-3,1.7442942E-3,1.0140991E-1,1.2779176E-2,8.7466836E-4,-7.395357E-3,3.2728314E-3,5.43952E-4,1.7241836E-2,1.9269288E-3,8.422534E-4,-1.7547607E-4],"categories":[],"categories_nodes":[],"categories_segments":[],"categories_sizes":[],"default_left":[true,true,true,true,true,false,true,false,false,false,true,false,false,false,false],"id":28,"left_children":[1,3,5,7,9,-1,11,-1,-1,-1,13,-1,-1,-1,-1],"loss_changes":[8.932686E-3,6.923937E-5,6.518645E-3,5.4220192E-5,7.3935753E-6,0E0,1.1206593E-4,0E0,0E0,0E0,1.0062208E-6,0E0,0E0,0E0,0E0],"parents":[2147483647,0,0,1,1,2,2,3,3,4,4,6,6,10,10],"right_children":[2,4,6,8,10,-1,12,-1,-1,-1,14,-1,-1,-1,-1],"split_conditions":[9.708333E0,4.840513E0,1.9150001E0,4.5742292E0,5.068233E0,3.0422974E-2,1.41875E1,2.624005E-4,-2.218607E-3,9.818495E-4,7.5520835E0,5.1725507E-3,5.780787E-4,2.5267602E-4,-5.2642823E-5],"split_indices":[0,0,1,0,0,0,0,0,0,0,0,0,0,0,0],"split_type":[0,0,0,0,0,0,0,0,0,0,0,0,0,0,0],"sum_hessian":[9E0,6E0,3E0,2E0,4E0,1E0,2E0,1E0,1E0,1E0,3E0,1E0,1E0,2E0,1E0],"tree_param":{"num_deleted":"0","num_feature":"3","num_nodes":"15","size_leaf_vector":"0"}},{"base_weights":[2.011863E-2,-5.4260663E-4,5.1246136E-2,-3.695051E-3,1.4573813E-3,8.619881E-2,1.086231E-2,7.4347854E-4,-6.286055E-3,2.7819276E-3,4.3076277E-4,1.465559E-2,1.637876E-3],"categories":[],"categories_nodes":[],"categories_segments":[],"categories_sizes":[],"default_left":[true,true,true,true,true,false,true,false,false,false,false,false,false],"id":29,"left_children":[1,3,5,7,9,-1,11,-1,-1,-1,-1,-1,-1],"loss_changes":[6.459134E-3,4.951905E-5,4.7097728E-3,3.917429E-5,5.6006684E-6,0E0,8.0968544E-5,0E0,0E0,0E0,6.6415544E-7,0E0,0E0],"parents":[2147483647,0,0,1,1,2,2,3,3,4,4,6,6],"right_children":[2,4,6,8,10,-1,12,-1,-1,-1,-1,-1,-1],"split_conditions":[9.708333E0,4.840513E0,1.9150001E0,4.5742292E0,5.068233E0,2.5859643E-2,1.41875E1,2.2304356E-4,-1.8858166E-3,8.345783E-4,1.2922884E-4,4.396677E-3,4.913628E-4],"split_indices":[0,0,1,0,0,0,0,0,0,0,0,0,0],"split_type":[0,0,0,0,0,0,0,0,0,0,0,0,0],"sum_hessian":[9E0,6E0,3E0,2E0,4E0,1E0,2E0,1E0,1E0,1E0,3E0,1E0,1E0],"tree_param":{"num_deleted":"0","num_feature":"3","num_nodes":"13","size_leaf_vector":"0"}},{"base_weights":[1.7087895E-2,-4.7967263E-4,4.3559164E-2,-3.1407874E-3,1.2129307E-3,7.326889E-2,9.232958E-3,6.3195825E-4,-5.343139E-3,1.9761722E-3,4.5379E-5,1.2457252E-2,1.3921857E-3],"categories":[],"categories_nodes":[],"categories_segments":[],"categories_sizes":[],"default_left":[true,true,true,true,true,false,true,false,false,false,false,false,false],"id":30,"left_children":[1,3,5,7,9,-1,11,-1,-1,-1,-1,-1,-1],"loss_changes":[4.6712523E-3,3.533904E-5,3.4028003E-3,2.8303382E-5,4.365943E-6,0E0,5.8500067E-5,0E0,0E0,1.8632727E-7,2.4402834E-7,0E0,0E0],"parents":[2147483647,0,0,1,1,2,2,3,3,4,4,6,6],"right_children":[2,4,6,8,10,-1,12,-1,-1,-1,-1,-1,-1],"split_conditions":[9.708333E0,4.840513E0,1.9150001E0,4.5742292E0,6.2290735E0,2.1980667E-2,1.41875E1,1.8958749E-4,-1.6029418E-3,5.9285166E-4,1.3613701E-5,3.7371756E-3,4.176557E-4],"split_indices":[0,0,1,0,0,0,0,0,0,0,0,0,0],"split_type":[0,0,0,0,0,0,0,0,0,0,0,0,0],"sum_hessian":[9E0,6E0,3E0,2E0,4E0,1E0,2E0,1E0,1E0,2E0,2E0,1E0,1E0],"tree_param":{"num_deleted":"0","num_feature":"3","num_nodes":"13","size_leaf_vector":"0"}},{"base_weights":[1.4494419E-2,-4.5104537E-4,3.7025377E-2,-2.6696722E-3,9.7033975E-4,6.2278748E-2,7.848005E-3,5.3715706E-4,-4.5416653E-3,2.0682216E-3,1.7881393E-4,1.0588646E-2,1.1833608E-3],"categories":[],"categories_nodes":[],"categories_segments":[],"categories_sizes":[],"default_left":[true,true,true,true,true,false,true,false,false,false,false,false,false],"id":31,"left_children":[1,3,5,7,9,-1,11,-1,-1,-1,-1,-1,-1],"loss_changes":[3.3840563E-3,2.466515E-5,2.458544E-3,2.0449072E-5,3.975182E-6,0E0,4.226601E-5,0E0,0E0,0E0,4.1507542E-7,0E0,0E0],"parents":[2147483647,0,0,1,1,2,2,3,3,4,4,6,6],"right_children":[2,4,6,8,10,-1,12,-1,-1,-1,-1,-1,-1],"split_conditions":[9.708333E0,4.840513E0,1.9150001E0,4.5742292E0,5.068233E0,1.8683625E-2,1.41875E1,1.6114712E-4,-1.3624997E-3,6.204665E-4,5.3644184E-5,3.176594E-3,3.5500826E-4],"split_indices":[0,0,1,0,0,0,0,0,0,0,0,0,0],"split_type":[0,0,0,0,0,0,0,0,0,0,0,0,0],"sum_hessian":[9E0,6E0,3E0,2E0,4E0,1E0,2E0,1E0,1E0,1E0,3E0,1E0,1E0],"tree_param":{"num_deleted":"0","num_feature":"3","num_nodes":"13","size_leaf_vector":"0"}},{"base_weights":[1.2314802E-2,-3.9105755E-4,3.1471357E-2,-2.2692282E-3,8.140564E-4,5.2936554E-2,6.670773E-3,4.5657158E-4,-3.860414E-3,1.7579794E-3,1.385808E-4,9.000301E-3,1.0058582E-3],"categories":[],"categories_nodes":[],"categories_segments":[],"categories_sizes":[],"default_left":[true,true,true,true,true,false,true,false,false,false,false,false,false],"id":32,"left_children":[1,3,5,7,9,-1,11,-1,-1,-1,-1,-1,-1],"loss_changes":[2.4463122E-3,1.7691147E-5,1.7762701E-3,1.4774318E-5,2.944363E-6,0E0,3.0536714E-5,0E0,0E0,0E0,4.1238422E-7,0E0,0E0],"parents":[2147483647,0,0,1,1,2,2,3,3,4,4,6,6],"right_children":[2,4,6,8,10,-1,12,-1,-1,-1,-1,-1,-1],"split_conditions":[9.708333E0,4.840513E0,1.9150001E0,4.5742292E0,5.068233E0,1.5880967E-2,1.41875E1,1.3697147E-4,-1.1581243E-3,5.2739383E-4,4.157424E-5,2.7000904E-3,3.0175748E-4],"split_indices":[0,0,1,0,0,0,0,0,0,0,0,0,0],"split_type":[0,0,0,0,0,0,0,0,0,0,0,0,0],"sum_hessian":[9E0,6E0,3E0,2E0,4E0,1E0,2E0,1E0,1E0,1E0,3E0,1E0,1E0],"tree_param":{"num_deleted":"0","num_feature":"3","num_nodes":"13","size_leaf_vector":"0"}},{"base_weights":[1.0463464E-2,-3.38333E-4,2.6750743E-2,-1.928846E-3,6.836414E-4,4.499626E-2,5.6701503E-3,3.8808584E-4,-3.281355E-3,1.4942884E-3,1.0740757E-4,7.650256E-3,8.54969E-4],"categories":[],"categories_nodes":[],"categories_segments":[],"categories_sizes":[],"default_left":[true,true,true,true,true,false,true,false,false,false,false,false,false],"id":33,"left_children":[1,3,5,7,9,-1,11,-1,-1,-1,-1,-1,-1],"loss_changes":[1.7683693E-3,1.2696884E-5,1.2833702E-3,1.0674461E-5,2.1751134E-6,0E0,2.206298E-5,0E0,0E0,0E0,4.0869708E-7,0E0,0E0],"parents":[2147483647,0,0,1,1,2,2,3,3,4,4,6,6],"right_children":[2,4,6,8,10,-1,12,-1,-1,-1,-1,-1,-1],"split_conditions":[9.708333E0,4.840513E0,1.9150001E0,4.5742292E0,5.068233E0,1.3498879E-2,1.41875E1,1.16425756E-4,-9.844066E-4,4.4828656E-4,3.2222273E-5,2.2950768E-3,2.5649072E-4],"split_indices":[0,0,1,0,0,0,0,0,0,0,0,0,0],"split_type":[0,0,0,0,0,0,0,0,0,0,0,0,0],"sum_hessian":[9E0,6E0,3E0,2E0,4E0,1E0,2E0,1E0,1E0,1E0,3E0,1E0,1E0],"tree_param":{"num_deleted":"0","num_feature":"3","num_nodes":"13","size_leaf_vector":"0"}},{"base_weights":[8.8907955E-3,-2.9217344E-4,2.2738293E-2,-1.6395053E-3,5.746603E-4,3.824711E-2,4.8196516E-3,3.298819E-4,-2.7891397E-3,1.2701154E-3,8.326769E-5,6.5027475E-3,7.2672963E-4],"categories":[],"categories_nodes":[],"categories_segments":[],"categories_sizes":[],"default_left":[true,true,true,true,true,false,true,false,false,false,false,false,false],"id":34,"left_children":[1,3,5,7,9,-1,11,-1,-1,-1,-1,-1,-1],"loss_changes":[1.2782548E-3,9.117547E-6,9.272499E-4,7.712312E-6,1.6029479E-6,0E0,1.5940604E-5,0E0,0E0,0E0,4.0481603E-7,0E0,0E0],"parents":[2147483647,0,0,1,1,2,2,3,3,4,4,6,6],"right_children":[2,4,6,8,10,-1,12,-1,-1,-1,-1,-1,-1],"split_conditions":[9.708333E0,4.840513E0,1.9150001E0,4.5742292E0,5.068233E0,1.1474133E-2,1.41875E1,9.896458E-5,-8.3674194E-4,3.8103462E-4,2.4980307E-5,1.9508243E-3,2.180189E-4],"split_indices":[0,0,1,0,0,0,0,0,0,0,0,0,0],"split_type":[0,0,0,0,0,0,0,0,0,0,0,0,0],"sum_hessian":[9E0,6E0,3E0,2E0,4E0,1E0,2E0,1E0,1E0,1E0,3E0,1E0,1E0],"tree_param":{"num_deleted":"0","num_feature":"3","num_nodes":"13","size_leaf_vector":"0"}},{"base_weights":[7.5546266E-3,-2.519318E-4,1.9327447E-2,-1.3935765E-3,4.8344134E-4,3.2509804E-2,4.0967264E-3,2.8041005E-4,-2.3707747E-3,7.5268745E-4,-2.9677153E-4,5.527377E-3,6.1771274E-4],"categories":[],"categories_nodes":[],"categories_segments":[],"categories_sizes":[],"default_left":[true,true,true,true,true,false,true,false,false,false,false,false,false],"id":35,"left_children":[1,3,5,7,9,-1,11,-1,-1,-1,-1,-1,-1],"loss_changes":[9.2392124E-4,6.5504564E-6,6.6992326E-4,5.57224E-6,1.2737225E-6,0E0,1.151743E-5,0E0,0E0,3.066914E-7,0E0,0E0,0E0],"parents":[2147483647,0,0,1,1,2,2,3,3,4,4,6,6],"right_children":[2,4,6,8,10,-1,12,-1,-1,-1,-1,-1,-1],"split_conditions":[9.708333E0,4.840513E0,1.9150001E0,4.5742292E0,7.5520835E0,9.752941E-3,1.41875E1,8.412302E-5,-7.112324E-4,2.2580624E-4,-8.903146E-5,1.6582132E-3,1.8531382E-4],"split_indices":[0,0,1,0,0,0,0,0,0,0,0,0,0],"split_type":[0,0,0,0,0,0,0,0,0,0,0,0,0],"sum_hessian":[9E0,6E0,3E0,2E0,4E0,1E0,2E0,1E0,1E0,3E0,1E0,1E0,1E0],"tree_param":{"num_deleted":"0","num_feature":"3","num_nodes":"13","size_leaf_vector":"0"}},{"base_weights":[6.3989284E-3,-2.4638858E-4,1.64285E-2,-1.184543E-3,3.6578177E-4,2.7633667E-2,3.4822226E-3,2.3835897E-4,-2.0151734E-3,9.6672773E-4,-2.6136637E-5,4.6982765E-3,5.250573E-4],"categories":[],"categories_nodes":[],"categories_segments":[],"categories_sizes":[],"default_left":[true,true,true,true,true,false,true,false,false,false,false,false,false],"id":36,"left_children":[1,3,5,7,9,-1,11,-1,-1,-1,-1,-1,-1],"loss_changes":[6.7054457E-4,4.4534563E-6,4.840342E-4,4.026052E-6,1.202876E-6,0E0,8.321353E-6,0E0,0E0,0E0,1.778437E-7,0E0,0E0],"parents":[2147483647,0,0,1,1,2,2,3,3,4,4,6,6],"right_children":[2,4,6,8,10,-1,12,-1,-1,-1,-1,-1,-1],"split_conditions":[9.708333E0,4.840513E0,1.9150001E0,4.5742292E0,5.068233E0,8.290101E-3,1.41875E1,7.15077E-5,-6.0455204E-4,2.9001833E-4,-7.840991E-6,1.409483E-3,1.575172E-4],"split_indices":[0,0,1,0,0,0,0,0,0,0,0,0,0],"split_type":[0,0,0,0,0,0,0,0,0,0,0,0,0],"sum_hessian":[9E0,6E0,3E0,2E0,4E0,1E0,2E0,1E0,1E0,1E0,3E0,1E0,1E0],"tree_param":{"num_deleted":"0","num_feature":"3","num_nodes":"13","size_leaf_vector":"0"}},{"base_weights":[5.439949E-3,-2.0830121E-4,1.39644E-2,-1.0068616E-3,3.1249522E-4,2.3488998E-2,2.9598672E-3,2.0259619E-4,-1.7128885E-3,3.993511E-3,4.4628978E-4],"categories":[],"categories_nodes":[],"categories_segments":[],"categories_sizes":[],"default_left":[true,true,true,true,false,false,true,false,false,false,false],"id":37,"left_children":[1,3,5,7,-1,-1,9,-1,-1,-1,-1],"loss_changes":[4.843911E-4,3.225851E-6,3.4973072E-4,2.908754E-6,8.637851E-7,0E0,6.0121674E-6,0E0,0E0,0E0,0E0],"parents":[2147483647,0,0,1,1,2,2,3,3,6,6],"right_children":[2,4,6,8,-1,-1,10,-1,-1,-1,-1],"split_conditions":[9.708333E0,4.840513E0,1.9150001E0,4.5742292E0,9.374857E-5,7.0467E-3,1.41875E1,6.0778857E-5,-5.1386654E-4,1.1980534E-3,1.3388693E-4],"split_indices":[0,0,1,0,0,0,0,0,0,0,0],"split_type":[0,0,0,0,0,0,0,0,0,0,0],"sum_hessian":[9E0,6E0,3E0,2E0,4E0,1E0,2E0,1E0,1E0,1E0,1E0],"tree_param":{"num_deleted":"0","num_feature":"3","num_nodes":"11","size_leaf_vector":"0"}},{"base_weights":[4.609817E-3,-1.9712107E-4,1.1869505E-2,5.640189E-4,-6.143808E-4,1.9965172E-2,2.5158923E-3,-1.4559627E-3,-3.9994717E-5,3.3944845E-3,3.7935376E-4],"categories":[],"categories_nodes":[],"categories_segments":[],"categories_sizes":[],"default_left":[true,true,true,false,true,false,true,false,false,false,false],"id":38,"left_children":[1,3,5,-1,7,-1,9,-1,-1,-1,-1],"loss_changes":[3.5130847E-4,2.5696738E-6,2.5266473E-4,2.5659506E-7,2.3587338E-6,0E0,4.3437285E-6,0E0,2.2957558E-7,0E0,0E0],"parents":[2147483647,0,0,1,1,2,2,4,4,6,6],"right_children":[2,4,6,-1,8,-1,10,-1,-1,-1,-1],"split_conditions":[9.708333E0,5.9000003E-1,1.9150001E0,1.6920568E-4,7.1500003E-1,5.989552E-3,1.41875E1,-4.367888E-4,-1.1998415E-5,1.0183454E-3,1.13806134E-4],"split_indices":[0,1,1,0,1,0,0,0,0,0,0],"split_type":[0,0,0,0,0,0,0,0,0,0,0],"sum_hessian":[9E0,6E0,3E0,2E0,4E0,1E0,2E0,1E0,3E0,1E0,1E0],"tree_param":{"num_deleted":"0","num_feature":"3","num_nodes":"11","size_leaf_vector":"0"}},{"base_weights":[3.9111436E-3,-1.7791986E-4,1.0089219E-2,6.902814E-4,-4.3766698E-4,1.6970634E-2,2.1385353E-3,-1.2375712E-3,-3.0171872E-5,2.8853416E-3,3.2246113E-4],"categories":[],"categories_nodes":[],"categories_segments":[],"categories_sizes":[],"default_left":[true,true,true,false,true,false,true,false,false,false,false],"id":39,"left_children":[1,3,5,-1,7,-1,9,-1,-1,-1,-1],"loss_changes":[2.544205E-4,1.8807027E-6,1.8255552E-4,0E0,1.9184026E-6,0E0,3.138357E-6,0E0,2.0832763E-7,0E0,0E0],"parents":[2147483647,0,0,1,1,2,2,4,4,6,6],"right_children":[2,4,6,-1,8,-1,10,-1,-1,-1,-1],"split_conditions":[9.708333E0,2.059258E0,1.9150001E0,2.0708442E-4,3.289148E0,5.0911903E-3,1.41875E1,-3.712714E-4,-9.051562E-6,8.656025E-4,9.6738346E-5],"split_indices":[0,2,1,0,2,0,0,0,0,0,0],"split_type":[0,0,0,0,0,0,0,0,0,0,0],"sum_hessian":[9E0,6E0,3E0,1E0,5E0,1E0,2E0,1E0,4E0,1E0,1E0],"tree_param":{"num_deleted":"0","num_feature":"3","num_nodes":"11","size_leaf_vector":"0"}},{"base_weights":[3.3258735E-3,-1.492841E-4,8.575931E-3,5.867481E-4,-3.697475E-4,1.4425278E-2,1.8177232E-3,-1.0519326E-3,-2.2923947E-5,2.4524927E-3,2.7409196E-4],"categories":[],"categories_nodes":[],"categories_segments":[],"categories_sizes":[],"default_left":[true,true,true,false,true,false,true,false,false,false,false],"id":40,"left_children":[1,3,5,-1,7,-1,9,-1,-1,-1,-1],"loss_changes":[1.8372803E-4,1.3528257E-6,1.3190325E-4,0E0,1.3954727E-6,0E0,2.267342E-6,0E0,2.11047E-7,0E0,0E0],"parents":[2147483647,0,0,1,1,2,2,4,4,6,6],"right_children":[2,4,6,-1,8,-1,10,-1,-1,-1,-1],"split_conditions":[9.708333E0,2.059258E0,1.9150001E0,1.7602445E-4,3.289148E0,4.3275836E-3,1.41875E1,-3.155798E-4,-6.877184E-6,7.3574786E-4,8.222759E-5],"split_indices":[0,2,1,0,2,0,0,0,0,0,0],"split_type":[0,0,0,0,0,0,0,0,0,0,0],"sum_hessian":[9E0,6E0,3E0,1E0,5E0,1E0,2E0,1E0,4E0,1E0,1E0],"tree_param":{"num_deleted":"0","num_feature":"3","num_nodes":"11","size_leaf_vector":"0"}},{"base_weights":[2.828008E-3,-1.2540817E-4,7.289484E-3,1.2261391E-2,1.5450517E-3,2.0846128E-3,2.3296475E-4],"categories":[],"categories_nodes":[],"categories_segments":[],"categories_sizes":[],"default_left":[true,false,true,false,true,false,false],"id":41,"left_children":[1,-1,3,-1,5,-1,-1],"loss_changes":[1.3268011E-4,9.734504E-7,9.529863E-5,0E0,1.6382123E-6,0E0,0E0],"parents":[2147483647,0,0,2,2,4,4],"right_children":[2,-1,4,-1,6,-1,-1],"split_conditions":[9.708333E0,-3.7622453E-5,1.9150001E0,3.6784173E-3,1.41875E1,6.2538387E-4,6.988943E-5],"split_indices":[0,0,1,0,0,0,0],"split_type":[0,0,0,0,0,0,0],"sum_hessian":[9E0,6E0,3E0,1E0,2E0,1E0,1E0],"tree_param":{"num_deleted":"0","num_feature":"3","num_nodes":"7","size_leaf_vector":"0"}},{"base_weights":[2.4131418E-3,-9.3136514E-5,6.195843E-3,1.0421753E-2,1.313289E-3,1.7719269E-3,1.9800663E-4],"categories":[],"categories_nodes":[],"categories_segments":[],"categories_sizes":[],"default_left":[true,false,true,false,true,false,false],"id":42,"left_children":[1,-1,3,-1,5,-1,-1],"loss_changes":[9.5382085E-5,9.493454E-7,6.884616E-5,0E0,1.1836792E-6,0E0,0E0],"parents":[2147483647,0,0,2,2,4,4],"right_children":[2,-1,4,-1,6,-1,-1],"split_conditions":[9.708333E0,-2.7940956E-5,1.9150001E0,3.126526E-3,1.41875E1,5.315781E-4,5.940199E-5],"split_indices":[0,0,1,0,0,0,0],"split_type":[0,0,0,0,0,0,0],"sum_hessian":[9E0,6E0,3E0,1E0,2E0,1E0,1E0],"tree_param":{"num_deleted":"0","num_feature":"3","num_nodes":"7","size_leaf_vector":"0"}},{"base_weights":[2.0581663E-3,-6.9209505E-5,5.2665323E-3,8.858681E-3,1.1162559E-3],"categories":[],"categories_nodes":[],"categories_segments":[],"categories_sizes":[],"default_left":[true,false,true,false,false],"id":43,"left_children":[1,-1,3,-1,-1],"loss_changes":[6.8618494E-5,9.305466E-7,4.9745075E-5,0E0,8.5517877E-7],"parents":[2147483647,0,0,2,2],"right_children":[2,-1,4,-1,-1],"split_conditions":[9.708333E0,-2.0762853E-5,1.9150001E0,2.6576044E-3,3.3487676E-4],"split_indices":[0,0,1,0,0],"split_type":[0,0,0,0,0],"sum_hessian":[9E0,6E0,3E0,1E0,2E0],"tree_param":{"num_deleted":"0","num_feature":"3","num_nodes":"5","size_leaf_vector":"0"}},{"base_weights":[1.7379343E-3,-5.1430292E-5,4.434839E-3,7.5302124E-3,8.9297694E-4,1.3386011E-3,8.6426735E-7],"categories":[],"categories_nodes":[],"categories_segments":[],"categories_sizes":[],"default_left":[true,false,true,false,true,false,false],"id":44,"left_children":[1,-1,3,-1,5,-1,-1],"loss_changes":[4.848554E-5,9.161209E-7,3.712924E-5,0E0,1.191484E-6,0E0,0E0],"parents":[2147483647,0,0,2,2,4,4],"right_children":[2,-1,4,-1,6,-1,-1],"split_conditions":[9.708333E0,-1.5429088E-5,1.9150001E0,2.2590638E-3,1.41875E1,4.0158036E-4,2.5928023E-7],"split_indices":[0,0,1,0,0,0,0],"split_type":[0,0,0,0,0,0,0],"sum_hessian":[9E0,6E0,3E0,1E0,2E0,1E0,1E0],"tree_param":{"num_deleted":"0","num_feature":"3","num_nodes":"7","size_leaf_vector":"0"}},{"base_weights":[1.4811814E-3,-3.8215094E-5,3.7698299E-3,6.401062E-3,7.5906515E-4],"categories":[],"categories_nodes":[],"categories_segments":[],"categories_sizes":[],"default_left":[true,false,true,false,false],"id":45,"left_children":[1,-1,3,-1,-1],"loss_changes":[3.4917706E-5,9.050711E-7,2.6829264E-5,0E0,8.608788E-7],"parents":[2147483647,0,0,2,2],"right_children":[2,-1,4,-1,-1],"split_conditions":[9.708333E0,-1.1464529E-5,1.9150001E0,1.9203187E-3,2.2771956E-4],"split_indices":[0,0,1,0,0],"split_type":[0,0,0,0,0],"sum_hessian":[9E0,6E0,3E0,1E0,2E0],"tree_param":{"num_deleted":"0","num_feature":"3","num_nodes":"5","size_leaf_vector":"0"}},{"base_weights":[1.250434E-3,-2.8405871E-5,3.175795E-3,5.440712E-3,6.072521E-4,1.0240078E-3,-1.13129616E-4],"categories":[],"categories_nodes":[],"categories_segments":[],"categories_sizes":[],"default_left":[true,false,true,false,true,false,false],"id":46,"left_children":[1,-1,3,-1,5,-1,-1],"loss_changes":[2.4712497E-5,8.96769E-7,1.996626E-5,0E0,1.016515E-6,0E0,0E0],"parents":[2147483647,0,0,2,2,4,4],"right_children":[2,-1,4,-1,6,-1,-1],"split_conditions":[9.708333E0,-8.521762E-6,1.9150001E0,1.6322137E-3,1.41875E1,3.0720234E-4,-3.3938886E-5],"split_indices":[0,0,1,0,0,0,0],"split_type":[0,0,0,0,0,0,0],"sum_hessian":[9E0,6E0,3E0,1E0,2E0,1E0,1E0],"tree_param":{"num_deleted":"0","num_feature":"3","num_nodes":"7","size_leaf_vector":"0"}},{"base_weights":[1.0649264E-3,-2.1117074E-5,2.6992708E-3,4.6243668E-3,5.161166E-4],"categories":[],"categories_nodes":[],"categories_segments":[],"categories_sizes":[],"default_left":[true,false,true,false,false],"id":47,"left_children":[1,-1,3,-1,-1],"loss_changes":[1.7806691E-5,8.9045807E-7,1.4424411E-5,0E0,7.3437684E-7],"parents":[2147483647,0,0,2,2],"right_children":[2,-1,4,-1,-1],"split_conditions":[9.708333E0,-6.335122E-6,1.9150001E0,1.3873101E-3,1.54835E-4],"split_indices":[0,0,1,0,0],"split_type":[0,0,0,0,0],"sum_hessian":[9E0,6E0,3E0,1E0,2E0],"tree_param":{"num_deleted":"0","num_feature":"3","num_nodes":"5","size_leaf_vector":"0"}},{"base_weights":[8.9910626E-4,-1.5684536E-5,2.2752136E-3,3.9310455E-3,4.129211E-4],"categories":[],"categories_nodes":[],"categories_segments":[],"categories_sizes":[],"default_left":[true,false,true,false,false],"id":48,"left_children":[1,-1,3,-1,-1],"loss_changes":[1.2624189E-5,8.8572483E-7,1.0711361E-5,0E0,8.0639654E-7],"parents":[2147483647,0,0,2,2],"right_children":[2,-1,4,-1,-1],"split_conditions":[9.708333E0,-4.705361E-6,1.9150001E0,1.1793138E-3,1.2387634E-4],"split_indices":[0,0,1,0,0],"split_type":[0,0,0,0,0],"sum_hessian":[9E0,6E0,3E0,1E0,2E0],"tree_param":{"num_deleted":"0","num_feature":"3","num_nodes":"5","size_leaf_vector":"0"}},{"base_weights":[7.5926183E-4,-1.166548E-5,1.9185692E-3,3.3416748E-3,3.3030906E-4],"categories":[],"categories_nodes":[],"categories_segments":[],"categories_sizes":[],"default_left":[true,false,true,false,false],"id":49,"left_children":[1,-1,3,-1,-1],"loss_changes":[8.959798E-6,8.821602E-7,7.937262E-6,0E0,8.5233114E-7],"parents":[2147483647,0,0,2,2],"right_children":[2,-1,4,-1,-1],"split_conditions":[9.708333E0,-3.4996442E-6,1.9150001E0,1.0025025E-3,9.909272E-5],"split_indices":[0,0,1,0,0],"split_type":[0,0,0,0,0],"sum_hessian":[9E0,6E0,3E0,1E0,2E0],"tree_param":{"num_deleted":"0","num_feature":"3","num_nodes":"5","size_leaf_vector":"0"}},{"base_weights":[6.412029E-4,-8.6682185E-6,1.6181767E-3,2.3476284E-3,-2.8508902E-4],"categories":[],"categories_nodes":[],"categories_segments":[],"categories_sizes":[],"default_left":[true,false,true,false,false],"id":50,"left_children":[1,-1,3,-1,-1],"loss_changes":[6.363097E-6,8.794729E-7,6.2226445E-6,5.2621544E-7,0E0],"parents":[2147483647,0,0,2,2],"right_children":[2,-1,4,-1,-1],"split_conditions":[9.708333E0,-2.6004657E-6,1.646875E1,7.0428854E-4,-8.5526706E-5],"split_indices":[0,0,0,0,0],"split_type":[0,0,0,0,0],"sum_hessian":[9E0,6E0,3E0,2E0,1E0],"tree_param":{"num_deleted":"0","num_feature":"3","num_nodes":"5","size_leaf_vector":"0"}},{"base_weights":[5.105197E-4,7.669628E-5,1.4972091E-3,2.4881363E-3,-2.4232268E-4],"categories":[],"categories_nodes":[],"categories_segments":[],"categories_sizes":[],"default_left":[true,false,true,false,false],"id":51,"left_children":[1,-1,3,-1,-1],"loss_changes":[4.1656594E-6,8.962382E-7,5.7741795E-6,0E0,0E0],"parents":[2147483647,0,0,2,2],"right_children":[2,-1,4,-1,-1],"split_conditions":[1.3864584E1,2.3008884E-5,1.646875E1,7.464409E-4,-7.269681E-5],"split_indices":[0,0,0,0,0],"split_type":[0,0,0,0,0],"sum_hessian":[9E0,7E0,2E0,1E0,1E0],"tree_param":{"num_deleted":"0","num_feature":"3","num_nodes":"5","size_leaf_vector":"0"}},{"base_weights":[4.2708515E-4,-2.6157924E-5,1.1134893E-3,2.1152496E-3,7.4485935E-5],"categories":[],"categories_nodes":[],"categories_segments":[],"categories_sizes":[],"default_left":[true,false,true,false,false],"id":52,"left_children":[1,-1,3,-1,-1],"loss_changes":[3.1402058E-6,8.9466465E-7,4.0057735E-6,0E0,2.7005512E-7],"parents":[2147483647,0,0,2,2],"right_children":[2,-1,4,-1,-1],"split_conditions":[9.708333E0,-7.847378E-6,1.9150001E0,6.345749E-4,2.2345781E-5],"split_indices":[0,0,1,0,0],"split_type":[0,0,0,0,0],"sum_hessian":[9E0,6E0,3E0,1E0,2E0],"tree_param":{"num_deleted":"0","num_feature":"3","num_nodes":"5","size_leaf_vector":"0"}},{"base_weights":[3.6381482E-4,-1.9414085E-5,9.435117E-4,1.7976761E-3,5.9564907E-5],"categories":[],"categories_nodes":[],"categories_segments":[],"categories_sizes":[],"default_left":[true,false,true,false,false],"id":53,"left_children":[1,-1,3,-1,-1],"loss_changes":[2.2398835E-6,8.888656E-7,2.913065E-6,0E0,2.7152404E-7],"parents":[2147483647,0,0,2,2],"right_children":[2,-1,4,-1,-1],"split_conditions":[9.708333E0,-5.824226E-6,1.9150001E0,5.393028E-4,1.7869474E-5],"split_indices":[0,0,1,0,0],"split_type":[0,0,0,0,0],"sum_hessian":[9E0,6E0,3E0,1E0,2E0],"tree_param":{"num_deleted":"0","num_feature":"3","num_nodes":"5","size_leaf_vector":"0"}},{"base_weights":[3.097534E-4,-3.8560232E-4,5.3179264E-4,2.5093555E-4,-8.29339E-4,1.0752678E-3,-9.3460085E-6,1.394113E-3,5.9366226E-5],"categories":[],"categories_nodes":[],"categories_segments":[],"categories_sizes":[],"default_left":[true,true,true,false,false,true,false,false,false],"id":54,"left_children":[1,3,5,-1,-1,7,-1,-1,-1],"loss_changes":[1.7490228E-6,1.0554762E-6,2.3628127E-6,0E0,0E0,1.2128976E-6,2.796151E-7,0E0,0E0],"parents":[2147483647,0,0,1,1,2,2,5,5],"right_children":[2,4,6,-1,-1,8,-1,-1,-1],"split_conditions":[4.840513E0,4.5742292E0,1.6600001E0,7.5280666E-5,-2.4880172E-4,6.208169E0,-2.8038025E-6,4.182339E-4,1.7809869E-5],"split_indices":[0,0,1,0,0,2,0,0,0],"split_type":[0,0,0,0,0,0,0,0,0],"sum_hessian":[9E0,2E0,7E0,1E0,1E0,3E0,4E0,2E0,1E0],"tree_param":{"num_deleted":"0","num_feature":"3","num_nodes":"9","size_leaf_vector":"0"}},{"base_weights":[2.4286509E-4,-5.111524E-5,6.966144E-4,1.0786057E-3,-2.2467971E-4],"categories":[],"categories_nodes":[],"categories_segments":[],"categories_sizes":[],"default_left":[true,false,true,false,false],"id":55,"left_children":[1,-1,3,-1,-1],"loss_changes":[1.3695413E-6,4.7259232E-7,1.650046E-6,1.6776494E-7,0E0],"parents":[2147483647,0,0,2,2],"right_children":[2,-1,4,-1,-1],"split_conditions":[9.708333E0,-1.5334572E-5,1.646875E1,3.235817E-4,-6.740392E-5],"split_indices":[0,0,0,0,0],"split_type":[0,0,0,0,0],"sum_hessian":[9E0,6E0,3E0,2E0,1E0],"tree_param":{"num_deleted":"0","num_feature":"3","num_nodes":"5","size_leaf_vector":"0"}},{"base_weights":[1.94031E-4],"categories":[],"categories_nodes":[],"categories_segments":[],"categories_sizes":[],"default_left":[false],"id":56,"left_children":[-1],"loss_changes":[9.722008E-7],"parents":[2147483647],"right_children":[-1],"split_conditions":[5.82093E-5],"split_indices":[0],"split_type":[0],"sum_hessian":[9E0],"tree_param":{"num_deleted":"0","num_feature":"3","num_nodes":"1","size_leaf_vector":"0"}},{"base_weights":[1.4156103E-4],"categories":[],"categories_nodes":[],"categories_segments":[],"categories_sizes":[],"default_left":[false],"id":57,"left_children":[-1],"loss_changes":[9.523576E-7],"parents":[2147483647],"right_children":[-1],"split_conditions":[4.246831E-5],"split_indices":[0],"split_type":[0],"sum_hessian":[9E0],"tree_param":{"num_deleted":"0","num_feature":"3","num_nodes":"1","size_leaf_vector":"0"}},{"base_weights":[1.0340214E-4],"categories":[],"categories_nodes":[],"categories_segments":[],"categories_sizes":[],"default_left":[false],"id":58,"left_children":[-1],"loss_changes":[9.510572E-7],"parents":[2147483647],"right_children":[-1],"split_conditions":[3.1020645E-5],"split_indices":[0],"split_type":[0],"sum_hessian":[9E0],"tree_param":{"num_deleted":"0","num_feature":"3","num_nodes":"1","size_leaf_vector":"0"}},{"base_weights":[7.5554846E-5],"categories":[],"categories_nodes":[],"categories_segments":[],"categories_sizes":[],"default_left":[false],"id":59,"left_children":[-1],"loss_changes":[9.748413E-7],"parents":[2147483647],"right_children":[-1],"split_conditions":[2.2666454E-5],"split_indices":[0],"split_type":[0],"sum_hessian":[9E0],"tree_param":{"num_deleted":"0","num_feature":"3","num_nodes":"1","size_leaf_vector":"0"}},{"base_weights":[5.5146218E-5],"categories":[],"categories_nodes":[],"categories_segments":[],"categories_sizes":[],"default_left":[false],"id":60,"left_children":[-1],"loss_changes":[9.908808E-7],"parents":[2147483647],"right_children":[-1],"split_conditions":[1.6543867E-5],"split_indices":[0],"split_type":[0],"sum_hessian":[9E0],"tree_param":{"num_deleted":"0","num_feature":"3","num_nodes":"1","size_leaf_vector":"0"}},{"base_weights":[4.0197374E-5,-1.4838576E-4,5.2968663E-4,1.0709763E-3,-2.7644634E-4],"categories":[],"categories_nodes":[],"categories_segments":[],"categories_sizes":[],"default_left":[true,false,true,false,false],"id":61,"left_children":[1,-1,3,-1,-1],"loss_changes":[1.001692E-6,4.0945264E-7,1.6051217E-6,0E0,0E0],"parents":[2147483647,0,0,2,2],"right_children":[2,-1,4,-1,-1],"split_conditions":[1.3864584E1,-4.451573E-5,1.646875E1,3.212929E-4,-8.2933904E-5],"split_indices":[0,0,0,0,0],"split_type":[0,0,0,0,0],"sum_hessian":[9E0,7E0,2E0,1E0,1E0],"tree_param":{"num_deleted":"0","num_feature":"3","num_nodes":"5","size_leaf_vector":"0"}},{"base_weights":[4.760623E-5],"categories":[],"categories_nodes":[],"categories_segments":[],"categories_sizes":[],"default_left":[false],"id":62,"left_children":[-1],"loss_changes":[8.151349E-7],"parents":[2147483647],"right_children":[-1],"split_conditions":[1.428187E-5],"split_indices":[0],"split_type":[0],"sum_hessian":[9E0],"tree_param":{"num_deleted":"0","num_feature":"3","num_nodes":"1","size_leaf_vector":"0"}},{"base_weights":[3.4826993E-5],"categories":[],"categories_nodes":[],"categories_segments":[],"categories_sizes":[],"default_left":[false],"id":63,"left_children":[-1],"loss_changes":[8.084699E-7],"parents":[2147483647],"right_children":[-1],"split_conditions":[1.0448099E-5],"split_indices":[0],"split_type":[0],"sum_hessian":[9E0],"tree_param":{"num_deleted":"0","num_feature":"3","num_nodes":"1","size_leaf_vector":"0"}},{"base_weights":[2.5498866E-5],"categories":[],"categories_nodes":[],"categories_segments":[],"categories_sizes":[],"default_left":[false],"id":64,"left_children":[-1],"loss_changes":[8.034129E-7],"parents":[2147483647],"right_children":[-1],"split_conditions":[7.64966E-6],"split_indices":[0],"split_type":[0],"sum_hessian":[9E0],"tree_param":{"num_deleted":"0","num_feature":"3","num_nodes":"1","size_leaf_vector":"0"}},{"base_weights":[1.8632412E-5],"categories":[],"categories_nodes":[],"categories_segments":[],"categories_sizes":[],"default_left":[false],"id":65,"left_children":[-1],"loss_changes":[7.9948353E-7],"parents":[2147483647],"right_children":[-1],"split_conditions":[5.589724E-6],"split_indices":[0],"split_type":[0],"sum_hessian":[9E0],"tree_param":{"num_deleted":"0","num_feature":"3","num_nodes":"1","size_leaf_vector":"0"}},{"base_weights":[1.360178E-5],"categories":[],"categories_nodes":[],"categories_segments":[],"categories_sizes":[],"default_left":[false],"id":66,"left_children":[-1],"loss_changes":[7.9658935E-7],"parents":[2147483647],"right_children":[-1],"split_conditions":[4.080534E-6],"split_indices":[0],"split_type":[0],"sum_hessian":[9E0],"tree_param":{"num_deleted":"0","num_feature":"3","num_nodes":"1","size_leaf_vector":"0"}},{"base_weights":[9.977817E-6],"categories":[],"categories_nodes":[],"categories_segments":[],"categories_sizes":[],"default_left":[false],"id":67,"left_children":[-1],"loss_changes":[7.945204E-7],"parents":[2147483647],"right_children":[-1],"split_conditions":[2.9933453E-6],"split_indices":[0],"split_type":[0],"sum_hessian":[9E0],"tree_param":{"num_deleted":"0","num_feature":"3","num_nodes":"1","size_leaf_vector":"0"}},{"base_weights":[7.18832E-6],"categories":[],"categories_nodes":[],"categories_segments":[],"categories_sizes":[],"default_left":[false],"id":68,"left_children":[-1],"loss_changes":[7.92577E-7],"parents":[2147483647],"right_children":[-1],"split_conditions":[2.156496E-6],"split_indices":[0],"split_type":[0],"sum_hessian":[9E0],"tree_param":{"num_deleted":"0","num_feature":"3","num_nodes":"1","size_leaf_vector":"0"}},{"base_weights":[5.2809714E-6],"categories":[],"categories_nodes":[],"categories_segments":[],"categories_sizes":[],"default_left":[false],"id":69,"left_children":[-1],"loss_changes":[7.9150163E-7],"parents":[2147483647],"right_children":[-1],"split_conditions":[1.5842915E-6],"split_indices":[0],"split_type":[0],"sum_hessian":[9E0],"tree_param":{"num_deleted":"0","num_feature":"3","num_nodes":"1","size_leaf_vector":"0"}},{"base_weights":[3.808737E-6],"categories":[],"categories_nodes":[],"categories_segments":[],"categories_sizes":[],"default_left":[false],"id":70,"left_children":[-1],"loss_changes":[7.905545E-7],"parents":[2147483647],"right_children":[-1],"split_conditions":[1.1426212E-6],"split_indices":[0],"split_type":[0],"sum_hessian":[9E0],"tree_param":{"num_deleted":"0","num_feature":"3","num_nodes":"1","size_leaf_vector":"0"}},{"base_weights":[2.682209E-6],"categories":[],"categories_nodes":[],"categories_segments":[],"categories_sizes":[],"default_left":[false],"id":71,"left_children":[-1],"loss_changes":[7.895895E-7],"parents":[2147483647],"right_children":[-1],"split_conditions":[8.0466276E-7],"split_indices":[0],"split_type":[0],"sum_hessian":[9E0],"tree_param":{"num_deleted":"0","num_feature":"3","num_nodes":"1","size_leaf_vector":"0"}},{"base_weights":[2.038479E-6],"categories":[],"categories_nodes":[],"categories_segments":[],"categories_sizes":[],"default_left":[false],"id":72,"left_children":[-1],"loss_changes":[7.8948796E-7],"parents":[2147483647],"right_children":[-1],"split_conditions":[6.1154367E-7],"split_indices":[0],"split_type":[0],"sum_hessian":[9E0],"tree_param":{"num_deleted":"0","num_feature":"3","num_nodes":"1","size_leaf_vector":"0"}},{"base_weights":[1.5377998E-6],"categories":[],"categories_nodes":[],"categories_segments":[],"categories_sizes":[],"default_left":[false],"id":73,"left_children":[-1],"loss_changes":[7.89281E-7],"parents":[2147483647],"right_children":[-1],"split_conditions":[4.6133997E-7],"split_indices":[0],"split_type":[0],"sum_hessian":[9E0],"tree_param":{"num_deleted":"0","num_feature":"3","num_nodes":"1","size_leaf_vector":"0"}},{"base_weights":[1.1563301E-6],"categories":[],"categories_nodes":[],"categories_segments":[],"categories_sizes":[],"default_left":[false],"id":74,"left_children":[-1],"loss_changes":[7.8917765E-7],"parents":[2147483647],"right_children":[-1],"split_conditions":[3.4689904E-7],"split_indices":[0],"split_type":[0],"sum_hessian":[9E0],"tree_param":{"num_deleted":"0","num_feature":"3","num_nodes":"1","size_leaf_vector":"0"}},{"base_weights":[8.940697E-7],"categories":[],"categories_nodes":[],"categories_segments":[],"categories_sizes":[],"default_left":[false],"id":75,"left_children":[-1],"loss_changes":[7.891781E-7],"parents":[2147483647],"right_children":[-1],"split_conditions":[2.682209E-7],"split_indices":[0],"split_type":[0],"sum_hessian":[9E0],"tree_param":{"num_deleted":"0","num_feature":"3","num_nodes":"1","size_leaf_vector":"0"}},{"base_weights":[7.033348E-7],"categories":[],"categories_nodes":[],"categories_segments":[],"categories_sizes":[],"default_left":[false],"id":76,"left_children":[-1],"loss_changes":[7.8912626E-7],"parents":[2147483647],"right_children":[-1],"split_conditions":[2.1100045E-7],"split_indices":[0],"split_type":[0],"sum_hessian":[9E0],"tree_param":{"num_deleted":"0","num_feature":"3","num_nodes":"1","size_leaf_vector":"0"}},{"base_weights":[5.1259997E-7],"categories":[],"categories_nodes":[],"categories_segments":[],"categories_sizes":[],"default_left":[false],"id":77,"left_children":[-1],"loss_changes":[7.8907436E-7],"parents":[2147483647],"right_children":[-1],"split_conditions":[1.5378E-7],"split_indices":[0],"split_type":[0],"sum_hessian":[9E0],"tree_param":{"num_deleted":"0","num_feature":"3","num_nodes":"1","size_leaf_vector":"0"}},{"base_weights":[3.7550927E-7],"categories":[],"categories_nodes":[],"categories_segments":[],"categories_sizes":[],"default_left":[false],"id":78,"left_children":[-1],"loss_changes":[7.890549E-7],"parents":[2147483647],"right_children":[-1],"split_conditions":[1.12652785E-7],"split_indices":[0],"split_type":[0],"sum_hessian":[9E0],"tree_param":{"num_deleted":"0","num_feature":"3","num_nodes":"1","size_leaf_vector":"0"}},{"base_weights":[3.0398368E-7],"categories":[],"categories_nodes":[],"categories_segments":[],"categories_sizes":[],"default_left":[false],"id":79,"left_children":[-1],"loss_changes":[7.8910705E-7],"parents":[2147483647],"right_children":[-1],"split_conditions":[9.119511E-8],"split_indices":[0],"split_type":[0],"sum_hessian":[9E0],"tree_param":{"num_deleted":"0","num_feature":"3","num_nodes":"1","size_leaf_vector":"0"}},{"base_weights":[2.3245812E-7],"categories":[],"categories_nodes":[],"categories_segments":[],"categories_sizes":[],"default_left":[false],"id":80,"left_children":[-1],"loss_changes":[7.8915923E-7],"parents":[2147483647],"right_children":[-1],"split_conditions":[6.973744E-8],"split_indices":[0],"split_type":[0],"sum_hessian":[9E0],"tree_param":{"num_deleted":"0","num_feature":"3","num_nodes":"1","size_leaf_vector":"0"}},{"base_weights":[1.7881393E-7],"categories":[],"categories_nodes":[],"categories_segments":[],"categories_sizes":[],"default_left":[false],"id":81,"left_children":[-1],"loss_changes":[7.8912666E-7],"parents":[2147483647],"right_children":[-1],"split_conditions":[5.3644182E-8],"split_indices":[0],"split_type":[0],"sum_hessian":[9E0],"tree_param":{"num_deleted":"0","num_feature":"3","num_nodes":"1","size_leaf_vector":"0"}},{"base_weights":[1.6093254E-7],"categories":[],"categories_nodes":[],"categories_segments":[],"categories_sizes":[],"default_left":[false],"id":82,"left_children":[-1],"loss_changes":[7.892114E-7],"parents":[2147483647],"right_children":[-1],"split_conditions":[4.8279766E-8],"split_indices":[0],"split_type":[0],"sum_hessian":[9E0],"tree_param":{"num_deleted":"0","num_feature":"3","num_nodes":"1","size_leaf_vector":"0"}},{"base_weights":[1.4305115E-7],"categories":[],"categories_nodes":[],"categories_segments":[],"categories_sizes":[],"default_left":[false],"id":83,"left_children":[-1],"loss_changes":[7.892961E-7],"parents":[2147483647],"right_children":[-1],"split_conditions":[4.2915346E-8],"split_indices":[0],"split_type":[0],"sum_hessian":[9E0],"tree_param":{"num_deleted":"0","num_feature":"3","num_nodes":"1","size_leaf_vector":"0"}},{"base_weights":[1.2516975E-7],"categories":[],"categories_nodes":[],"categories_segments":[],"categories_sizes":[],"default_left":[false],"id":84,"left_children":[-1],"loss_changes":[7.8938086E-7],"parents":[2147483647],"right_children":[-1],"split_conditions":[3.7550926E-8],"split_indices":[0],"split_type":[0],"sum_hessian":[9E0],"tree_param":{"num_deleted":"0","num_feature":"3","num_nodes":"1","size_leaf_vector":"0"}},{"base_weights":[1.0728836E-7],"categories":[],"categories_nodes":[],"categories_segments":[],"categories_sizes":[],"default_left":[false],"id":85,"left_children":[-1],"loss_changes":[7.894657E-7],"parents":[2147483647],"right_children":[-1],"split_conditions":[3.218651E-8],"split_indices":[0],"split_type":[0],"sum_hessian":[9E0],"tree_param":{"num_deleted":"0","num_feature":"3","num_nodes":"1","size_leaf_vector":"0"}},{"base_weights":[8.940697E-8],"categories":[],"categories_nodes":[],"categories_segments":[],"categories_sizes":[],"default_left":[false],"id":86,"left_children":[-1],"loss_changes":[7.895504E-7],"parents":[2147483647],"right_children":[-1],"split_conditions":[2.6822091E-8],"split_indices":[0],"split_type":[0],"sum_hessian":[9E0],"tree_param":{"num_deleted":"0","num_feature":"3","num_nodes":"1","size_leaf_vector":"0"}},{"base_weights":[8.940697E-8],"categories":[],"categories_nodes":[],"categories_segments":[],"categories_sizes":[],"default_left":[false],"id":87,"left_children":[-1],"loss_changes":[7.895504E-7],"parents":[2147483647],"right_children":[-1],"split_conditions":[2.6822091E-8],"split_indices":[0],"split_type":[0],"sum_hessian":[9E0],"tree_param":{"num_deleted":"0","num_feature":"3","num_nodes":"1","size_leaf_vector":"0"}},{"base_weights":[8.940697E-8],"categories":[],"categories_nodes":[],"categories_segments":[],"categories_sizes":[],"default_left":[false],"id":88,"left_children":[-1],"loss_changes":[7.895504E-7],"parents":[2147483647],"right_children":[-1],"split_conditions":[2.6822091E-8],"split_indices":[0],"split_type":[0],"sum_hessian":[9E0],"tree_param":{"num_deleted":"0","num_feature":"3","num_nodes":"1","size_leaf_vector":"0"}},{"base_weights":[8.940697E-8],"categories":[],"categories_nodes":[],"categories_segments":[],"categories_sizes":[],"default_left":[false],"id":89,"left_children":[-1],"loss_changes":[7.895504E-7],"parents":[2147483647],"right_children":[-1],"split_conditions":[2.6822091E-8],"split_indices":[0],"split_type":[0],"sum_hessian":[9E0],"tree_param":{"num_deleted":"0","num_feature":"3","num_nodes":"1","size_leaf_vector":"0"}},{"base_weights":[8.940697E-8],"categories":[],"categories_nodes":[],"categories_segments":[],"categories_sizes":[],"default_left":[false],"id":90,"left_children":[-1],"loss_changes":[7.895504E-7],"parents":[2147483647],"right_children":[-1],"split_conditions":[2.6822091E-8],"split_indices":[0],"split_type":[0],"sum_hessian":[9E0],"tree_param":{"num_deleted":"0","num_feature":"3","num_nodes":"1","size_leaf_vector":"0"}},{"base_weights":[8.940697E-8],"categories":[],"categories_nodes":[],"categories_segments":[],"categories_sizes":[],"default_left":[false],"id":91,"left_children":[-1],"loss_changes":[7.895504E-7],"parents":[2147483647],"right_children":[-1],"split_conditions":[2.6822091E-8],"split_indices":[0],"split_type":[0],"sum_hessian":[9E0],"tree_param":{"num_deleted":"0","num_feature":"3","num_nodes":"1","size_leaf_vector":"0"}},{"base_weights":[8.940697E-8],"categories":[],"categories_nodes":[],"categories_segments":[],"categories_sizes":[],"default_left":[false],"id":92,"left_children":[-1],"loss_changes":[7.895504E-7],"parents":[2147483647],"right_children":[-1],"split_conditions":[2.6822091E-8],"split_indices":[0],"split_type":[0],"sum_hessian":[9E0],"tree_param":{"num_deleted":"0","num_feature":"3","num_nodes":"1","size_leaf_vector":"0"}},{"base_weights":[8.940697E-8],"categories":[],"categories_nodes":[],"categories_segments":[],"categories_sizes":[],"default_left":[false],"id":93,"left_children":[-1],"loss_changes":[7.895504E-7],"parents":[2147483647],"right_children":[-1],"split_conditions":[2.6822091E-8],"split_indices":[0],"split_type":[0],"sum_hessian":[9E0],"tree_param":{"num_deleted":"0","num_feature":"3","num_nodes":"1","size_leaf_vector":"0"}},{"base_weights":[8.940697E-8],"categories":[],"categories_nodes":[],"categories_segments":[],"categories_sizes":[],"default_left":[false],"id":94,"left_children":[-1],"loss_changes":[7.895504E-7],"parents":[2147483647],"right_children":[-1],"split_conditions":[2.6822091E-8],"split_indices":[0],"split_type":[0],"sum_hessian":[9E0],"tree_param":{"num_deleted":"0","num_feature":"3","num_nodes":"1","size_leaf_vector":"0"}},{"base_weights":[8.940697E-8],"categories":[],"categories_nodes":[],"categories_segments":[],"categories_sizes":[],"default_left":[false],"id":95,"left_children":[-1],"loss_changes":[7.895504E-7],"parents":[2147483647],"right_children":[-1],"split_conditions":[2.6822091E-8],"split_indices":[0],"split_type":[0],"sum_hessian":[9E0],"tree_param":{"num_deleted":"0","num_feature":"3","num_nodes":"1","size_leaf_vector":"0"}},{"base_weights":[8.940697E-8],"categories":[],"categories_nodes":[],"categories_segments":[],"categories_sizes":[],"default_left":[false],"id":96,"left_children":[-1],"loss_changes":[7.895504E-7],"parents":[2147483647],"right_children":[-1],"split_conditions":[2.6822091E-8],"split_indices":[0],"split_type":[0],"sum_hessian":[9E0],"tree_param":{"num_deleted":"0","num_feature":"3","num_nodes":"1","size_leaf_vector":"0"}},{"base_weights":[8.940697E-8],"categories":[],"categories_nodes":[],"categories_segments":[],"categories_sizes":[],"default_left":[false],"id":97,"left_children":[-1],"loss_changes":[7.895504E-7],"parents":[2147483647],"right_children":[-1],"split_conditions":[2.6822091E-8],"split_indices":[0],"split_type":[0],"sum_hessian":[9E0],"tree_param":{"num_deleted":"0","num_feature":"3","num_nodes":"1","size_leaf_vector":"0"}},{"base_weights":[8.940697E-8],"categories":[],"categories_nodes":[],"categories_segments":[],"categories_sizes":[],"default_left":[false],"id":98,"left_children":[-1],"loss_changes":[7.895504E-7],"parents":[2147483647],"right_children":[-1],"split_conditions":[2.6822091E-8],"split_indices":[0],"split_type":[0],"sum_hessian":[9E0],"tree_param":{"num_deleted":"0","num_feature":"3","num_nodes":"1","size_leaf_vector":"0"}},{"base_weights":[8.940697E-8],"categories":[],"categories_nodes":[],"categories_segments":[],"categories_sizes":[],"default_left":[false],"id":99,"left_children":[-1],"loss_changes":[7.895504E-7],"parents":[2147483647],"right_children":[-1],"split_conditions":[2.6822091E-8],"split_indices":[0],"split_type":[0],"sum_hessian":[9E0],"tree_param":{"num_deleted":"0","num_feature":"3","num_nodes":"1","size_leaf_vector":"0"}}]},"name":"gbtree"},"learner_model_param":{"base_score":"5E-1","num_class":"0","num_feature":"3"},"objective":{"name":"reg:squarederror","reg_loss_param":{"scale_pos_weight":"1"}}},"version":[1,5,0]}